digraph Tree {
node [shape=box, fontname="helvetica"] ;
edge [fontname="helvetica"] ;
0 [label="x[3] <= 99638.695\ngini = 0.5\nsamples = 10000\nvalue = [5037, 4963]"] ;
1 [label="x[3] <= 88585.348\ngini = 0.5\nsamples = 9943\nvalue = [5020, 4923]"] ;
0 -> 1 [labeldistance=2.5, labelangle=45, headlabel="True"] ;
2 [label="x[0] <= 1.5\ngini = 0.5\nsamples = 8390\nvalue = [4182, 4208]"] ;
1 -> 2 ;
3 [label="x[3] <= 83760.633\ngini = 0.497\nsamples = 1030\nvalue = [474, 556]"] ;
2 -> 3 ;
4 [label="x[2] <= 56965.98\ngini = 0.499\nsamples = 942\nvalue = [447, 495]"] ;
3 -> 4 ;
5 [label="x[2] <= 55537.275\ngini = 0.499\nsamples = 378\nvalue = [199, 179]"] ;
4 -> 5 ;
6 [label="x[3] <= 32510.87\ngini = 0.5\nsamples = 355\nvalue = [181, 174]"] ;
5 -> 6 ;
7 [label="x[2] <= 36639.889\ngini = 0.434\nsamples = 22\nvalue = [7, 15]"] ;
6 -> 7 ;
8 [label="x[3] <= 31827.54\ngini = 0.375\nsamples = 4\nvalue = [3, 1]"] ;
7 -> 8 ;
9 [label="x[3] <= 31247.155\ngini = 0.5\nsamples = 2\nvalue = [1, 1]"] ;
8 -> 9 ;
10 [label="gini = 0.0\nsamples = 1\nvalue = [1, 0]"] ;
9 -> 10 ;
11 [label="gini = 0.0\nsamples = 1\nvalue = [0, 1]"] ;
9 -> 11 ;
12 [label="gini = 0.0\nsamples = 2\nvalue = [2, 0]"] ;
8 -> 12 ;
13 [label="x[3] <= 30498.33\ngini = 0.346\nsamples = 18\nvalue = [4, 14]"] ;
7 -> 13 ;
14 [label="gini = 0.0\nsamples = 1\nvalue = [1, 0]"] ;
13 -> 14 ;
15 [label="x[0] <= 0.5\ngini = 0.291\nsamples = 17\nvalue = [3, 14]"] ;
13 -> 15 ;
16 [label="x[2] <= 42903.131\ngini = 0.49\nsamples = 7\nvalue = [3, 4]"] ;
15 -> 16 ;
17 [label="gini = 0.0\nsamples = 3\nvalue = [0, 3]"] ;
16 -> 17 ;
18 [label="x[1] <= 1.5\ngini = 0.375\nsamples = 4\nvalue = [3, 1]"] ;
16 -> 18 ;
19 [label="gini = 0.0\nsamples = 1\nvalue = [0, 1]"] ;
18 -> 19 ;
20 [label="gini = 0.0\nsamples = 3\nvalue = [3, 0]"] ;
18 -> 20 ;
21 [label="gini = 0.0\nsamples = 10\nvalue = [0, 10]"] ;
15 -> 21 ;
22 [label="x[1] <= 2.5\ngini = 0.499\nsamples = 333\nvalue = [174, 159]"] ;
6 -> 22 ;
23 [label="x[0] <= 0.5\ngini = 0.457\nsamples = 51\nvalue = [33, 18]"] ;
22 -> 23 ;
24 [label="x[2] <= 42874.406\ngini = 0.365\nsamples = 25\nvalue = [19, 6]"] ;
23 -> 24 ;
25 [label="x[1] <= 1.5\ngini = 0.231\nsamples = 15\nvalue = [13, 2]"] ;
24 -> 25 ;
26 [label="x[2] <= 34462.273\ngini = 0.133\nsamples = 14\nvalue = [13, 1]"] ;
25 -> 26 ;
27 [label="x[2] <= 32810.609\ngini = 0.375\nsamples = 4\nvalue = [3, 1]"] ;
26 -> 27 ;
28 [label="gini = 0.0\nsamples = 3\nvalue = [3, 0]"] ;
27 -> 28 ;
29 [label="gini = 0.0\nsamples = 1\nvalue = [0, 1]"] ;
27 -> 29 ;
30 [label="gini = 0.0\nsamples = 10\nvalue = [10, 0]"] ;
26 -> 30 ;
31 [label="gini = 0.0\nsamples = 1\nvalue = [0, 1]"] ;
25 -> 31 ;
32 [label="x[3] <= 53510.805\ngini = 0.48\nsamples = 10\nvalue = [6, 4]"] ;
24 -> 32 ;
33 [label="gini = 0.0\nsamples = 3\nvalue = [0, 3]"] ;
32 -> 33 ;
34 [label="x[3] <= 79815.184\ngini = 0.245\nsamples = 7\nvalue = [6, 1]"] ;
32 -> 34 ;
35 [label="gini = 0.0\nsamples = 5\nvalue = [5, 0]"] ;
34 -> 35 ;
36 [label="x[2] <= 48389.43\ngini = 0.5\nsamples = 2\nvalue = [1, 1]"] ;
34 -> 36 ;
37 [label="gini = 0.0\nsamples = 1\nvalue = [1, 0]"] ;
36 -> 37 ;
38 [label="gini = 0.0\nsamples = 1\nvalue = [0, 1]"] ;
36 -> 38 ;
39 [label="x[1] <= 0.5\ngini = 0.497\nsamples = 26\nvalue = [14, 12]"] ;
23 -> 39 ;
40 [label="x[3] <= 54484.227\ngini = 0.245\nsamples = 7\nvalue = [1, 6]"] ;
39 -> 40 ;
41 [label="gini = 0.0\nsamples = 4\nvalue = [0, 4]"] ;
40 -> 41 ;
42 [label="x[3] <= 56004.381\ngini = 0.444\nsamples = 3\nvalue = [1, 2]"] ;
40 -> 42 ;
43 [label="gini = 0.0\nsamples = 1\nvalue = [1, 0]"] ;
42 -> 43 ;
44 [label="gini = 0.0\nsamples = 2\nvalue = [0, 2]"] ;
42 -> 44 ;
45 [label="x[2] <= 48160.65\ngini = 0.432\nsamples = 19\nvalue = [13, 6]"] ;
39 -> 45 ;
46 [label="x[3] <= 74224.91\ngini = 0.49\nsamples = 14\nvalue = [8, 6]"] ;
45 -> 46 ;
47 [label="x[2] <= 47239.557\ngini = 0.444\nsamples = 12\nvalue = [8, 4]"] ;
46 -> 47 ;
48 [label="x[3] <= 51111.525\ngini = 0.397\nsamples = 11\nvalue = [8, 3]"] ;
47 -> 48 ;
49 [label="x[3] <= 46781.84\ngini = 0.49\nsamples = 7\nvalue = [4, 3]"] ;
48 -> 49 ;
50 [label="x[2] <= 46069.395\ngini = 0.32\nsamples = 5\nvalue = [4, 1]"] ;
49 -> 50 ;
51 [label="gini = 0.0\nsamples = 3\nvalue = [3, 0]"] ;
50 -> 51 ;
52 [label="x[1] <= 1.5\ngini = 0.5\nsamples = 2\nvalue = [1, 1]"] ;
50 -> 52 ;
53 [label="gini = 0.0\nsamples = 1\nvalue = [1, 0]"] ;
52 -> 53 ;
54 [label="gini = 0.0\nsamples = 1\nvalue = [0, 1]"] ;
52 -> 54 ;
55 [label="gini = 0.0\nsamples = 2\nvalue = [0, 2]"] ;
49 -> 55 ;
56 [label="gini = 0.0\nsamples = 4\nvalue = [4, 0]"] ;
48 -> 56 ;
57 [label="gini = 0.0\nsamples = 1\nvalue = [0, 1]"] ;
47 -> 57 ;
58 [label="gini = 0.0\nsamples = 2\nvalue = [0, 2]"] ;
46 -> 58 ;
59 [label="gini = 0.0\nsamples = 5\nvalue = [5, 0]"] ;
45 -> 59 ;
60 [label="x[2] <= 55077.416\ngini = 0.5\nsamples = 282\nvalue = [141, 141]"] ;
22 -> 60 ;
61 [label="x[2] <= 42218.436\ngini = 0.5\nsamples = 274\nvalue = [140, 134]"] ;
60 -> 61 ;
62 [label="x[3] <= 76402.242\ngini = 0.493\nsamples = 139\nvalue = [61, 78]"] ;
61 -> 62 ;
63 [label="x[1] <= 6.5\ngini = 0.482\nsamples = 121\nvalue = [49, 72]"] ;
62 -> 63 ;
64 [label="x[2] <= 31859.47\ngini = 0.389\nsamples = 34\nvalue = [9, 25]"] ;
63 -> 64 ;
65 [label="x[2] <= 30755.811\ngini = 0.375\nsamples = 4\nvalue = [3, 1]"] ;
64 -> 65 ;
66 [label="gini = 0.0\nsamples = 1\nvalue = [0, 1]"] ;
65 -> 66 ;
67 [label="gini = 0.0\nsamples = 3\nvalue = [3, 0]"] ;
65 -> 67 ;
68 [label="x[3] <= 35624.795\ngini = 0.32\nsamples = 30\nvalue = [6, 24]"] ;
64 -> 68 ;
69 [label="x[2] <= 34197.51\ngini = 0.444\nsamples = 3\nvalue = [2, 1]"] ;
68 -> 69 ;
70 [label="gini = 0.0\nsamples = 1\nvalue = [0, 1]"] ;
69 -> 70 ;
71 [label="gini = 0.0\nsamples = 2\nvalue = [2, 0]"] ;
69 -> 71 ;
72 [label="x[2] <= 40018.471\ngini = 0.252\nsamples = 27\nvalue = [4, 23]"] ;
68 -> 72 ;
73 [label="x[1] <= 4.5\ngini = 0.172\nsamples = 21\nvalue = [2, 19]"] ;
72 -> 73 ;
74 [label="x[2] <= 37154.004\ngini = 0.298\nsamples = 11\nvalue = [2, 9]"] ;
73 -> 74 ;
75 [label="x[2] <= 36598.629\ngini = 0.408\nsamples = 7\nvalue = [2, 5]"] ;
74 -> 75 ;
76 [label="x[1] <= 3.5\ngini = 0.278\nsamples = 6\nvalue = [1, 5]"] ;
75 -> 76 ;
77 [label="x[3] <= 68346.029\ngini = 0.5\nsamples = 2\nvalue = [1, 1]"] ;
76 -> 77 ;
78 [label="gini = 0.0\nsamples = 1\nvalue = [1, 0]"] ;
77 -> 78 ;
79 [label="gini = 0.0\nsamples = 1\nvalue = [0, 1]"] ;
77 -> 79 ;
80 [label="gini = 0.0\nsamples = 4\nvalue = [0, 4]"] ;
76 -> 80 ;
81 [label="gini = 0.0\nsamples = 1\nvalue = [1, 0]"] ;
75 -> 81 ;
82 [label="gini = 0.0\nsamples = 4\nvalue = [0, 4]"] ;
74 -> 82 ;
83 [label="gini = 0.0\nsamples = 10\nvalue = [0, 10]"] ;
73 -> 83 ;
84 [label="x[3] <= 71356.746\ngini = 0.444\nsamples = 6\nvalue = [2, 4]"] ;
72 -> 84 ;
85 [label="x[3] <= 55129.795\ngini = 0.32\nsamples = 5\nvalue = [1, 4]"] ;
84 -> 85 ;
86 [label="x[1] <= 5.0\ngini = 0.5\nsamples = 2\nvalue = [1, 1]"] ;
85 -> 86 ;
87 [label="gini = 0.0\nsamples = 1\nvalue = [1, 0]"] ;
86 -> 87 ;
88 [label="gini = 0.0\nsamples = 1\nvalue = [0, 1]"] ;
86 -> 88 ;
89 [label="gini = 0.0\nsamples = 3\nvalue = [0, 3]"] ;
85 -> 89 ;
90 [label="gini = 0.0\nsamples = 1\nvalue = [1, 0]"] ;
84 -> 90 ;
91 [label="x[1] <= 9.5\ngini = 0.497\nsamples = 87\nvalue = [40, 47]"] ;
63 -> 91 ;
92 [label="x[3] <= 71626.676\ngini = 0.459\nsamples = 28\nvalue = [18, 10]"] ;
91 -> 92 ;
93 [label="x[2] <= 31424.91\ngini = 0.403\nsamples = 25\nvalue = [18, 7]"] ;
92 -> 93 ;
94 [label="gini = 0.0\nsamples = 1\nvalue = [0, 1]"] ;
93 -> 94 ;
95 [label="x[2] <= 35786.176\ngini = 0.375\nsamples = 24\nvalue = [18, 6]"] ;
93 -> 95 ;
96 [label="x[2] <= 33341.064\ngini = 0.165\nsamples = 11\nvalue = [10, 1]"] ;
95 -> 96 ;
97 [label="x[2] <= 32930.589\ngini = 0.32\nsamples = 5\nvalue = [4, 1]"] ;
96 -> 97 ;
98 [label="gini = 0.0\nsamples = 4\nvalue = [4, 0]"] ;
97 -> 98 ;
99 [label="gini = 0.0\nsamples = 1\nvalue = [0, 1]"] ;
97 -> 99 ;
100 [label="gini = 0.0\nsamples = 6\nvalue = [6, 0]"] ;
96 -> 100 ;
101 [label="x[2] <= 37119.176\ngini = 0.473\nsamples = 13\nvalue = [8, 5]"] ;
95 -> 101 ;
102 [label="gini = 0.0\nsamples = 2\nvalue = [0, 2]"] ;
101 -> 102 ;
103 [label="x[3] <= 59146.955\ngini = 0.397\nsamples = 11\nvalue = [8, 3]"] ;
101 -> 103 ;
104 [label="x[2] <= 37392.77\ngini = 0.219\nsamples = 8\nvalue = [7, 1]"] ;
103 -> 104 ;
105 [label="x[2] <= 37302.166\ngini = 0.5\nsamples = 2\nvalue = [1, 1]"] ;
104 -> 105 ;
106 [label="gini = 0.0\nsamples = 1\nvalue = [1, 0]"] ;
105 -> 106 ;
107 [label="gini = 0.0\nsamples = 1\nvalue = [0, 1]"] ;
105 -> 107 ;
108 [label="gini = 0.0\nsamples = 6\nvalue = [6, 0]"] ;
104 -> 108 ;
109 [label="x[3] <= 68652.488\ngini = 0.444\nsamples = 3\nvalue = [1, 2]"] ;
103 -> 109 ;
110 [label="gini = 0.0\nsamples = 2\nvalue = [0, 2]"] ;
109 -> 110 ;
111 [label="gini = 0.0\nsamples = 1\nvalue = [1, 0]"] ;
109 -> 111 ;
112 [label="gini = 0.0\nsamples = 3\nvalue = [0, 3]"] ;
92 -> 112 ;
113 [label="x[2] <= 30478.54\ngini = 0.468\nsamples = 59\nvalue = [22, 37]"] ;
91 -> 113 ;
114 [label="gini = 0.0\nsamples = 1\nvalue = [1, 0]"] ;
113 -> 114 ;
115 [label="x[2] <= 31139.71\ngini = 0.462\nsamples = 58\nvalue = [21, 37]"] ;
113 -> 115 ;
116 [label="gini = 0.0\nsamples = 3\nvalue = [0, 3]"] ;
115 -> 116 ;
117 [label="x[2] <= 34621.988\ngini = 0.472\nsamples = 55\nvalue = [21, 34]"] ;
115 -> 117 ;
118 [label="x[3] <= 39693.465\ngini = 0.498\nsamples = 15\nvalue = [8, 7]"] ;
117 -> 118 ;
119 [label="gini = 0.0\nsamples = 3\nvalue = [3, 0]"] ;
118 -> 119 ;
120 [label="x[1] <= 10.5\ngini = 0.486\nsamples = 12\nvalue = [5, 7]"] ;
118 -> 120 ;
121 [label="gini = 0.0\nsamples = 2\nvalue = [0, 2]"] ;
120 -> 121 ;
122 [label="x[3] <= 40637.201\ngini = 0.5\nsamples = 10\nvalue = [5, 5]"] ;
120 -> 122 ;
123 [label="gini = 0.0\nsamples = 2\nvalue = [0, 2]"] ;
122 -> 123 ;
124 [label="x[3] <= 56209.09\ngini = 0.469\nsamples = 8\nvalue = [5, 3]"] ;
122 -> 124 ;
125 [label="gini = 0.0\nsamples = 3\nvalue = [3, 0]"] ;
124 -> 125 ;
126 [label="x[3] <= 68582.547\ngini = 0.48\nsamples = 5\nvalue = [2, 3]"] ;
124 -> 126 ;
127 [label="gini = 0.0\nsamples = 2\nvalue = [0, 2]"] ;
126 -> 127 ;
128 [label="x[2] <= 31922.1\ngini = 0.444\nsamples = 3\nvalue = [2, 1]"] ;
126 -> 128 ;
129 [label="gini = 0.0\nsamples = 1\nvalue = [0, 1]"] ;
128 -> 129 ;
130 [label="gini = 0.0\nsamples = 2\nvalue = [2, 0]"] ;
128 -> 130 ;
131 [label="x[3] <= 57379.986\ngini = 0.439\nsamples = 40\nvalue = [13, 27]"] ;
117 -> 131 ;
132 [label="x[1] <= 12.5\ngini = 0.266\nsamples = 19\nvalue = [3, 16]"] ;
131 -> 132 ;
133 [label="gini = 0.0\nsamples = 8\nvalue = [0, 8]"] ;
132 -> 133 ;
134 [label="x[1] <= 14.5\ngini = 0.397\nsamples = 11\nvalue = [3, 8]"] ;
132 -> 134 ;
135 [label="x[2] <= 40343.805\ngini = 0.5\nsamples = 6\nvalue = [3, 3]"] ;
134 -> 135 ;
136 [label="gini = 0.0\nsamples = 3\nvalue = [3, 0]"] ;
135 -> 136 ;
137 [label="gini = 0.0\nsamples = 3\nvalue = [0, 3]"] ;
135 -> 137 ;
138 [label="gini = 0.0\nsamples = 5\nvalue = [0, 5]"] ;
134 -> 138 ;
139 [label="x[3] <= 61103.416\ngini = 0.499\nsamples = 21\nvalue = [10, 11]"] ;
131 -> 139 ;
140 [label="gini = 0.0\nsamples = 3\nvalue = [3, 0]"] ;
139 -> 140 ;
141 [label="x[2] <= 41177.135\ngini = 0.475\nsamples = 18\nvalue = [7, 11]"] ;
139 -> 141 ;
142 [label="x[3] <= 66713.105\ngini = 0.43\nsamples = 16\nvalue = [5, 11]"] ;
141 -> 142 ;
143 [label="gini = 0.0\nsamples = 6\nvalue = [0, 6]"] ;
142 -> 143 ;
144 [label="x[3] <= 74241.426\ngini = 0.5\nsamples = 10\nvalue = [5, 5]"] ;
142 -> 144 ;
145 [label="x[1] <= 14.5\ngini = 0.32\nsamples = 5\nvalue = [4, 1]"] ;
144 -> 145 ;
146 [label="gini = 0.0\nsamples = 3\nvalue = [3, 0]"] ;
145 -> 146 ;
147 [label="x[0] <= 0.5\ngini = 0.5\nsamples = 2\nvalue = [1, 1]"] ;
145 -> 147 ;
148 [label="gini = 0.0\nsamples = 1\nvalue = [0, 1]"] ;
147 -> 148 ;
149 [label="gini = 0.0\nsamples = 1\nvalue = [1, 0]"] ;
147 -> 149 ;
150 [label="x[2] <= 40364.225\ngini = 0.32\nsamples = 5\nvalue = [1, 4]"] ;
144 -> 150 ;
151 [label="gini = 0.0\nsamples = 3\nvalue = [0, 3]"] ;
150 -> 151 ;
152 [label="x[1] <= 10.5\ngini = 0.5\nsamples = 2\nvalue = [1, 1]"] ;
150 -> 152 ;
153 [label="gini = 0.0\nsamples = 1\nvalue = [0, 1]"] ;
152 -> 153 ;
154 [label="gini = 0.0\nsamples = 1\nvalue = [1, 0]"] ;
152 -> 154 ;
155 [label="gini = 0.0\nsamples = 2\nvalue = [2, 0]"] ;
141 -> 155 ;
156 [label="x[1] <= 8.5\ngini = 0.444\nsamples = 18\nvalue = [12, 6]"] ;
62 -> 156 ;
157 [label="x[3] <= 77365.875\ngini = 0.219\nsamples = 8\nvalue = [7, 1]"] ;
156 -> 157 ;
158 [label="x[3] <= 76995.32\ngini = 0.5\nsamples = 2\nvalue = [1, 1]"] ;
157 -> 158 ;
159 [label="gini = 0.0\nsamples = 1\nvalue = [1, 0]"] ;
158 -> 159 ;
160 [label="gini = 0.0\nsamples = 1\nvalue = [0, 1]"] ;
158 -> 160 ;
161 [label="gini = 0.0\nsamples = 6\nvalue = [6, 0]"] ;
157 -> 161 ;
162 [label="x[3] <= 82520.344\ngini = 0.5\nsamples = 10\nvalue = [5, 5]"] ;
156 -> 162 ;
163 [label="x[2] <= 37319.029\ngini = 0.469\nsamples = 8\nvalue = [5, 3]"] ;
162 -> 163 ;
164 [label="x[3] <= 81203.562\ngini = 0.375\nsamples = 4\nvalue = [1, 3]"] ;
163 -> 164 ;
165 [label="gini = 0.0\nsamples = 3\nvalue = [0, 3]"] ;
164 -> 165 ;
166 [label="gini = 0.0\nsamples = 1\nvalue = [1, 0]"] ;
164 -> 166 ;
167 [label="gini = 0.0\nsamples = 4\nvalue = [4, 0]"] ;
163 -> 167 ;
168 [label="gini = 0.0\nsamples = 2\nvalue = [0, 2]"] ;
162 -> 168 ;
169 [label="x[2] <= 46342.984\ngini = 0.485\nsamples = 135\nvalue = [79, 56]"] ;
61 -> 169 ;
170 [label="x[1] <= 3.5\ngini = 0.431\nsamples = 54\nvalue = [37, 17]"] ;
169 -> 170 ;
171 [label="gini = 0.0\nsamples = 2\nvalue = [0, 2]"] ;
170 -> 171 ;
172 [label="x[3] <= 68091.078\ngini = 0.411\nsamples = 52\nvalue = [37, 15]"] ;
170 -> 172 ;
173 [label="x[1] <= 7.5\ngini = 0.313\nsamples = 36\nvalue = [29, 7]"] ;
172 -> 173 ;
174 [label="gini = 0.0\nsamples = 14\nvalue = [14, 0]"] ;
173 -> 174 ;
175 [label="x[2] <= 43476.875\ngini = 0.434\nsamples = 22\nvalue = [15, 7]"] ;
173 -> 175 ;
176 [label="x[3] <= 62454.883\ngini = 0.469\nsamples = 8\nvalue = [3, 5]"] ;
175 -> 176 ;
177 [label="x[3] <= 44742.5\ngini = 0.408\nsamples = 7\nvalue = [2, 5]"] ;
176 -> 177 ;
178 [label="x[3] <= 40859.904\ngini = 0.5\nsamples = 4\nvalue = [2, 2]"] ;
177 -> 178 ;
179 [label="gini = 0.0\nsamples = 2\nvalue = [0, 2]"] ;
178 -> 179 ;
180 [label="gini = 0.0\nsamples = 2\nvalue = [2, 0]"] ;
178 -> 180 ;
181 [label="gini = 0.0\nsamples = 3\nvalue = [0, 3]"] ;
177 -> 181 ;
182 [label="gini = 0.0\nsamples = 1\nvalue = [1, 0]"] ;
176 -> 182 ;
183 [label="x[2] <= 46195.309\ngini = 0.245\nsamples = 14\nvalue = [12, 2]"] ;
175 -> 183 ;
184 [label="x[3] <= 39573.109\ngini = 0.153\nsamples = 12\nvalue = [11, 1]"] ;
183 -> 184 ;
185 [label="x[3] <= 35704.055\ngini = 0.5\nsamples = 2\nvalue = [1, 1]"] ;
184 -> 185 ;
186 [label="gini = 0.0\nsamples = 1\nvalue = [1, 0]"] ;
185 -> 186 ;
187 [label="gini = 0.0\nsamples = 1\nvalue = [0, 1]"] ;
185 -> 187 ;
188 [label="gini = 0.0\nsamples = 10\nvalue = [10, 0]"] ;
184 -> 188 ;
189 [label="x[2] <= 46253.023\ngini = 0.5\nsamples = 2\nvalue = [1, 1]"] ;
183 -> 189 ;
190 [label="gini = 0.0\nsamples = 1\nvalue = [0, 1]"] ;
189 -> 190 ;
191 [label="gini = 0.0\nsamples = 1\nvalue = [1, 0]"] ;
189 -> 191 ;
192 [label="x[3] <= 71901.02\ngini = 0.5\nsamples = 16\nvalue = [8, 8]"] ;
172 -> 192 ;
193 [label="gini = 0.0\nsamples = 4\nvalue = [0, 4]"] ;
192 -> 193 ;
194 [label="x[1] <= 4.5\ngini = 0.444\nsamples = 12\nvalue = [8, 4]"] ;
192 -> 194 ;
195 [label="gini = 0.0\nsamples = 1\nvalue = [0, 1]"] ;
194 -> 195 ;
196 [label="x[2] <= 46004.215\ngini = 0.397\nsamples = 11\nvalue = [8, 3]"] ;
194 -> 196 ;
197 [label="x[1] <= 11.5\ngini = 0.32\nsamples = 10\nvalue = [8, 2]"] ;
196 -> 197 ;
198 [label="gini = 0.0\nsamples = 4\nvalue = [4, 0]"] ;
197 -> 198 ;
199 [label="x[2] <= 44716.865\ngini = 0.444\nsamples = 6\nvalue = [4, 2]"] ;
197 -> 199 ;
200 [label="x[3] <= 79713.875\ngini = 0.444\nsamples = 3\nvalue = [1, 2]"] ;
199 -> 200 ;
201 [label="gini = 0.0\nsamples = 2\nvalue = [0, 2]"] ;
200 -> 201 ;
202 [label="gini = 0.0\nsamples = 1\nvalue = [1, 0]"] ;
200 -> 202 ;
203 [label="gini = 0.0\nsamples = 3\nvalue = [3, 0]"] ;
199 -> 203 ;
204 [label="gini = 0.0\nsamples = 1\nvalue = [0, 1]"] ;
196 -> 204 ;
205 [label="x[2] <= 48229.682\ngini = 0.499\nsamples = 81\nvalue = [42, 39]"] ;
169 -> 205 ;
206 [label="x[1] <= 11.5\ngini = 0.245\nsamples = 14\nvalue = [2, 12]"] ;
205 -> 206 ;
207 [label="x[1] <= 4.5\ngini = 0.142\nsamples = 13\nvalue = [1, 12]"] ;
206 -> 207 ;
208 [label="x[0] <= 0.5\ngini = 0.444\nsamples = 3\nvalue = [1, 2]"] ;
207 -> 208 ;
209 [label="gini = 0.0\nsamples = 1\nvalue = [1, 0]"] ;
208 -> 209 ;
210 [label="gini = 0.0\nsamples = 2\nvalue = [0, 2]"] ;
208 -> 210 ;
211 [label="gini = 0.0\nsamples = 10\nvalue = [0, 10]"] ;
207 -> 211 ;
212 [label="gini = 0.0\nsamples = 1\nvalue = [1, 0]"] ;
206 -> 212 ;
213 [label="x[3] <= 36994.25\ngini = 0.481\nsamples = 67\nvalue = [40, 27]"] ;
205 -> 213 ;
214 [label="gini = 0.0\nsamples = 5\nvalue = [5, 0]"] ;
213 -> 214 ;
215 [label="x[3] <= 52663.32\ngini = 0.492\nsamples = 62\nvalue = [35, 27]"] ;
213 -> 215 ;
216 [label="x[3] <= 50182.201\ngini = 0.483\nsamples = 22\nvalue = [9, 13]"] ;
215 -> 216 ;
217 [label="x[3] <= 48830.35\ngini = 0.48\nsamples = 15\nvalue = [9, 6]"] ;
216 -> 217 ;
218 [label="x[1] <= 7.5\ngini = 0.48\nsamples = 10\nvalue = [4, 6]"] ;
217 -> 218 ;
219 [label="x[2] <= 50577.811\ngini = 0.32\nsamples = 5\nvalue = [4, 1]"] ;
218 -> 219 ;
220 [label="x[1] <= 5.5\ngini = 0.5\nsamples = 2\nvalue = [1, 1]"] ;
219 -> 220 ;
221 [label="gini = 0.0\nsamples = 1\nvalue = [0, 1]"] ;
220 -> 221 ;
222 [label="gini = 0.0\nsamples = 1\nvalue = [1, 0]"] ;
220 -> 222 ;
223 [label="gini = 0.0\nsamples = 3\nvalue = [3, 0]"] ;
219 -> 223 ;
224 [label="gini = 0.0\nsamples = 5\nvalue = [0, 5]"] ;
218 -> 224 ;
225 [label="gini = 0.0\nsamples = 5\nvalue = [5, 0]"] ;
217 -> 225 ;
226 [label="gini = 0.0\nsamples = 7\nvalue = [0, 7]"] ;
216 -> 226 ;
227 [label="x[3] <= 80224.57\ngini = 0.455\nsamples = 40\nvalue = [26, 14]"] ;
215 -> 227 ;
228 [label="x[1] <= 3.5\ngini = 0.432\nsamples = 38\nvalue = [26, 12]"] ;
227 -> 228 ;
229 [label="gini = 0.0\nsamples = 1\nvalue = [0, 1]"] ;
228 -> 229 ;
230 [label="x[1] <= 6.5\ngini = 0.418\nsamples = 37\nvalue = [26, 11]"] ;
228 -> 230 ;
231 [label="gini = 0.0\nsamples = 4\nvalue = [4, 0]"] ;
230 -> 231 ;
232 [label="x[2] <= 53396.465\ngini = 0.444\nsamples = 33\nvalue = [22, 11]"] ;
230 -> 232 ;
233 [label="x[0] <= 0.5\ngini = 0.363\nsamples = 21\nvalue = [16, 5]"] ;
232 -> 233 ;
234 [label="x[2] <= 50313.936\ngini = 0.494\nsamples = 9\nvalue = [5, 4]"] ;
233 -> 234 ;
235 [label="gini = 0.0\nsamples = 2\nvalue = [0, 2]"] ;
234 -> 235 ;
236 [label="x[3] <= 65388.879\ngini = 0.408\nsamples = 7\nvalue = [5, 2]"] ;
234 -> 236 ;
237 [label="x[3] <= 60549.449\ngini = 0.444\nsamples = 3\nvalue = [1, 2]"] ;
236 -> 237 ;
238 [label="gini = 0.0\nsamples = 1\nvalue = [1, 0]"] ;
237 -> 238 ;
239 [label="gini = 0.0\nsamples = 2\nvalue = [0, 2]"] ;
237 -> 239 ;
240 [label="gini = 0.0\nsamples = 4\nvalue = [4, 0]"] ;
236 -> 240 ;
241 [label="x[1] <= 7.5\ngini = 0.153\nsamples = 12\nvalue = [11, 1]"] ;
233 -> 241 ;
242 [label="x[3] <= 68332.775\ngini = 0.5\nsamples = 2\nvalue = [1, 1]"] ;
241 -> 242 ;
243 [label="gini = 0.0\nsamples = 1\nvalue = [0, 1]"] ;
242 -> 243 ;
244 [label="gini = 0.0\nsamples = 1\nvalue = [1, 0]"] ;
242 -> 244 ;
245 [label="gini = 0.0\nsamples = 10\nvalue = [10, 0]"] ;
241 -> 245 ;
246 [label="x[2] <= 53996.49\ngini = 0.5\nsamples = 12\nvalue = [6, 6]"] ;
232 -> 246 ;
247 [label="x[3] <= 53173.539\ngini = 0.32\nsamples = 5\nvalue = [1, 4]"] ;
246 -> 247 ;
248 [label="gini = 0.0\nsamples = 1\nvalue = [1, 0]"] ;
247 -> 248 ;
249 [label="gini = 0.0\nsamples = 4\nvalue = [0, 4]"] ;
247 -> 249 ;
250 [label="x[3] <= 76005.234\ngini = 0.408\nsamples = 7\nvalue = [5, 2]"] ;
246 -> 250 ;
251 [label="gini = 0.0\nsamples = 4\nvalue = [4, 0]"] ;
250 -> 251 ;
252 [label="x[2] <= 54367.145\ngini = 0.444\nsamples = 3\nvalue = [1, 2]"] ;
250 -> 252 ;
253 [label="gini = 0.0\nsamples = 1\nvalue = [1, 0]"] ;
252 -> 253 ;
254 [label="gini = 0.0\nsamples = 2\nvalue = [0, 2]"] ;
252 -> 254 ;
255 [label="gini = 0.0\nsamples = 2\nvalue = [0, 2]"] ;
227 -> 255 ;
256 [label="x[3] <= 70914.113\ngini = 0.219\nsamples = 8\nvalue = [1, 7]"] ;
60 -> 256 ;
257 [label="gini = 0.0\nsamples = 6\nvalue = [0, 6]"] ;
256 -> 257 ;
258 [label="x[3] <= 77463.691\ngini = 0.5\nsamples = 2\nvalue = [1, 1]"] ;
256 -> 258 ;
259 [label="gini = 0.0\nsamples = 1\nvalue = [1, 0]"] ;
258 -> 259 ;
260 [label="gini = 0.0\nsamples = 1\nvalue = [0, 1]"] ;
258 -> 260 ;
261 [label="x[1] <= 1.5\ngini = 0.34\nsamples = 23\nvalue = [18, 5]"] ;
5 -> 261 ;
262 [label="gini = 0.0\nsamples = 2\nvalue = [0, 2]"] ;
261 -> 262 ;
263 [label="x[3] <= 58644.99\ngini = 0.245\nsamples = 21\nvalue = [18, 3]"] ;
261 -> 263 ;
264 [label="gini = 0.0\nsamples = 9\nvalue = [9, 0]"] ;
263 -> 264 ;
265 [label="x[3] <= 65433.592\ngini = 0.375\nsamples = 12\nvalue = [9, 3]"] ;
263 -> 265 ;
266 [label="gini = 0.0\nsamples = 2\nvalue = [0, 2]"] ;
265 -> 266 ;
267 [label="x[1] <= 3.0\ngini = 0.18\nsamples = 10\nvalue = [9, 1]"] ;
265 -> 267 ;
268 [label="x[2] <= 55869.396\ngini = 0.5\nsamples = 2\nvalue = [1, 1]"] ;
267 -> 268 ;
269 [label="gini = 0.0\nsamples = 1\nvalue = [1, 0]"] ;
268 -> 269 ;
270 [label="gini = 0.0\nsamples = 1\nvalue = [0, 1]"] ;
268 -> 270 ;
271 [label="gini = 0.0\nsamples = 8\nvalue = [8, 0]"] ;
267 -> 271 ;
272 [label="x[2] <= 60958.32\ngini = 0.493\nsamples = 564\nvalue = [248, 316]"] ;
4 -> 272 ;
273 [label="x[2] <= 59031.238\ngini = 0.403\nsamples = 50\nvalue = [14, 36]"] ;
272 -> 273 ;
274 [label="x[2] <= 57973.811\ngini = 0.48\nsamples = 35\nvalue = [14, 21]"] ;
273 -> 274 ;
275 [label="x[3] <= 81727.871\ngini = 0.18\nsamples = 10\nvalue = [1, 9]"] ;
274 -> 275 ;
276 [label="gini = 0.0\nsamples = 9\nvalue = [0, 9]"] ;
275 -> 276 ;
277 [label="gini = 0.0\nsamples = 1\nvalue = [1, 0]"] ;
275 -> 277 ;
278 [label="x[2] <= 58258.5\ngini = 0.499\nsamples = 25\nvalue = [13, 12]"] ;
274 -> 278 ;
279 [label="gini = 0.0\nsamples = 4\nvalue = [4, 0]"] ;
278 -> 279 ;
280 [label="x[2] <= 58573.939\ngini = 0.49\nsamples = 21\nvalue = [9, 12]"] ;
278 -> 280 ;
281 [label="x[1] <= 5.5\ngini = 0.32\nsamples = 10\nvalue = [2, 8]"] ;
280 -> 281 ;
282 [label="x[3] <= 34481.217\ngini = 0.444\nsamples = 3\nvalue = [2, 1]"] ;
281 -> 282 ;
283 [label="gini = 0.0\nsamples = 1\nvalue = [0, 1]"] ;
282 -> 283 ;
284 [label="gini = 0.0\nsamples = 2\nvalue = [2, 0]"] ;
282 -> 284 ;
285 [label="gini = 0.0\nsamples = 7\nvalue = [0, 7]"] ;
281 -> 285 ;
286 [label="x[1] <= 6.5\ngini = 0.463\nsamples = 11\nvalue = [7, 4]"] ;
280 -> 286 ;
287 [label="x[2] <= 58672.719\ngini = 0.444\nsamples = 6\nvalue = [2, 4]"] ;
286 -> 287 ;
288 [label="x[3] <= 53335.211\ngini = 0.444\nsamples = 3\nvalue = [2, 1]"] ;
287 -> 288 ;
289 [label="gini = 0.0\nsamples = 2\nvalue = [2, 0]"] ;
288 -> 289 ;
290 [label="gini = 0.0\nsamples = 1\nvalue = [0, 1]"] ;
288 -> 290 ;
291 [label="gini = 0.0\nsamples = 3\nvalue = [0, 3]"] ;
287 -> 291 ;
292 [label="gini = 0.0\nsamples = 5\nvalue = [5, 0]"] ;
286 -> 292 ;
293 [label="gini = 0.0\nsamples = 15\nvalue = [0, 15]"] ;
273 -> 293 ;
294 [label="x[3] <= 30256.505\ngini = 0.496\nsamples = 514\nvalue = [234, 280]"] ;
272 -> 294 ;
295 [label="gini = 0.0\nsamples = 3\nvalue = [3, 0]"] ;
294 -> 295 ;
296 [label="x[2] <= 62846.545\ngini = 0.495\nsamples = 511\nvalue = [231, 280]"] ;
294 -> 296 ;
297 [label="x[3] <= 71482.133\ngini = 0.482\nsamples = 32\nvalue = [19, 13]"] ;
296 -> 297 ;
298 [label="x[3] <= 59129.66\ngini = 0.497\nsamples = 28\nvalue = [15, 13]"] ;
297 -> 298 ;
299 [label="x[3] <= 33354.539\ngini = 0.455\nsamples = 20\nvalue = [13, 7]"] ;
298 -> 299 ;
300 [label="gini = 0.0\nsamples = 2\nvalue = [0, 2]"] ;
299 -> 300 ;
301 [label="x[2] <= 61678.576\ngini = 0.401\nsamples = 18\nvalue = [13, 5]"] ;
299 -> 301 ;
302 [label="x[2] <= 61273.484\ngini = 0.48\nsamples = 5\nvalue = [2, 3]"] ;
301 -> 302 ;
303 [label="gini = 0.0\nsamples = 2\nvalue = [2, 0]"] ;
302 -> 303 ;
304 [label="gini = 0.0\nsamples = 3\nvalue = [0, 3]"] ;
302 -> 304 ;
305 [label="x[1] <= 8.5\ngini = 0.26\nsamples = 13\nvalue = [11, 2]"] ;
301 -> 305 ;
306 [label="x[2] <= 62239.221\ngini = 0.444\nsamples = 6\nvalue = [4, 2]"] ;
305 -> 306 ;
307 [label="x[3] <= 40495.811\ngini = 0.444\nsamples = 3\nvalue = [1, 2]"] ;
306 -> 307 ;
308 [label="gini = 0.0\nsamples = 1\nvalue = [1, 0]"] ;
307 -> 308 ;
309 [label="gini = 0.0\nsamples = 2\nvalue = [0, 2]"] ;
307 -> 309 ;
310 [label="gini = 0.0\nsamples = 3\nvalue = [3, 0]"] ;
306 -> 310 ;
311 [label="gini = 0.0\nsamples = 7\nvalue = [7, 0]"] ;
305 -> 311 ;
312 [label="x[2] <= 62811.0\ngini = 0.375\nsamples = 8\nvalue = [2, 6]"] ;
298 -> 312 ;
313 [label="x[2] <= 61220.33\ngini = 0.245\nsamples = 7\nvalue = [1, 6]"] ;
312 -> 313 ;
314 [label="x[2] <= 61086.926\ngini = 0.5\nsamples = 2\nvalue = [1, 1]"] ;
313 -> 314 ;
315 [label="gini = 0.0\nsamples = 1\nvalue = [0, 1]"] ;
314 -> 315 ;
316 [label="gini = 0.0\nsamples = 1\nvalue = [1, 0]"] ;
314 -> 316 ;
317 [label="gini = 0.0\nsamples = 5\nvalue = [0, 5]"] ;
313 -> 317 ;
318 [label="gini = 0.0\nsamples = 1\nvalue = [1, 0]"] ;
312 -> 318 ;
319 [label="gini = 0.0\nsamples = 4\nvalue = [4, 0]"] ;
297 -> 319 ;
320 [label="x[2] <= 63341.574\ngini = 0.493\nsamples = 479\nvalue = [212, 267]"] ;
296 -> 320 ;
321 [label="gini = 0.0\nsamples = 7\nvalue = [0, 7]"] ;
320 -> 321 ;
322 [label="x[2] <= 64160.719\ngini = 0.495\nsamples = 472\nvalue = [212, 260]"] ;
320 -> 322 ;
323 [label="x[1] <= 13.5\ngini = 0.32\nsamples = 10\nvalue = [8, 2]"] ;
322 -> 323 ;
324 [label="x[2] <= 63491.76\ngini = 0.198\nsamples = 9\nvalue = [8, 1]"] ;
323 -> 324 ;
325 [label="x[3] <= 52516.049\ngini = 0.444\nsamples = 3\nvalue = [2, 1]"] ;
324 -> 325 ;
326 [label="gini = 0.0\nsamples = 1\nvalue = [0, 1]"] ;
325 -> 326 ;
327 [label="gini = 0.0\nsamples = 2\nvalue = [2, 0]"] ;
325 -> 327 ;
328 [label="gini = 0.0\nsamples = 6\nvalue = [6, 0]"] ;
324 -> 328 ;
329 [label="gini = 0.0\nsamples = 1\nvalue = [0, 1]"] ;
323 -> 329 ;
330 [label="x[2] <= 65085.24\ngini = 0.493\nsamples = 462\nvalue = [204, 258]"] ;
322 -> 330 ;
331 [label="x[3] <= 80986.547\ngini = 0.133\nsamples = 14\nvalue = [1, 13]"] ;
330 -> 331 ;
332 [label="gini = 0.0\nsamples = 13\nvalue = [0, 13]"] ;
331 -> 332 ;
333 [label="gini = 0.0\nsamples = 1\nvalue = [1, 0]"] ;
331 -> 333 ;
334 [label="x[1] <= 4.5\ngini = 0.496\nsamples = 448\nvalue = [203, 245]"] ;
330 -> 334 ;
335 [label="x[3] <= 62408.775\ngini = 0.499\nsamples = 131\nvalue = [69, 62]"] ;
334 -> 335 ;
336 [label="x[3] <= 60129.705\ngini = 0.48\nsamples = 80\nvalue = [48, 32]"] ;
335 -> 336 ;
337 [label="x[3] <= 55194.104\ngini = 0.494\nsamples = 72\nvalue = [40, 32]"] ;
336 -> 337 ;
338 [label="x[2] <= 69617.418\ngini = 0.471\nsamples = 58\nvalue = [36, 22]"] ;
337 -> 338 ;
339 [label="x[1] <= 2.5\ngini = 0.278\nsamples = 12\nvalue = [10, 2]"] ;
338 -> 339 ;
340 [label="gini = 0.0\nsamples = 8\nvalue = [8, 0]"] ;
339 -> 340 ;
341 [label="x[2] <= 66165.828\ngini = 0.5\nsamples = 4\nvalue = [2, 2]"] ;
339 -> 341 ;
342 [label="gini = 0.0\nsamples = 1\nvalue = [1, 0]"] ;
341 -> 342 ;
343 [label="x[2] <= 68998.168\ngini = 0.444\nsamples = 3\nvalue = [1, 2]"] ;
341 -> 343 ;
344 [label="gini = 0.0\nsamples = 2\nvalue = [0, 2]"] ;
343 -> 344 ;
345 [label="gini = 0.0\nsamples = 1\nvalue = [1, 0]"] ;
343 -> 345 ;
346 [label="x[2] <= 83175.23\ngini = 0.491\nsamples = 46\nvalue = [26, 20]"] ;
338 -> 346 ;
347 [label="x[1] <= 1.5\ngini = 0.43\nsamples = 16\nvalue = [5, 11]"] ;
346 -> 347 ;
348 [label="gini = 0.0\nsamples = 6\nvalue = [0, 6]"] ;
347 -> 348 ;
349 [label="x[2] <= 71304.875\ngini = 0.5\nsamples = 10\nvalue = [5, 5]"] ;
347 -> 349 ;
350 [label="gini = 0.0\nsamples = 2\nvalue = [0, 2]"] ;
349 -> 350 ;
351 [label="x[3] <= 32907.721\ngini = 0.469\nsamples = 8\nvalue = [5, 3]"] ;
349 -> 351 ;
352 [label="gini = 0.0\nsamples = 1\nvalue = [0, 1]"] ;
351 -> 352 ;
353 [label="x[0] <= 0.5\ngini = 0.408\nsamples = 7\nvalue = [5, 2]"] ;
351 -> 353 ;
354 [label="gini = 0.0\nsamples = 4\nvalue = [4, 0]"] ;
353 -> 354 ;
355 [label="x[2] <= 73880.43\ngini = 0.444\nsamples = 3\nvalue = [1, 2]"] ;
353 -> 355 ;
356 [label="gini = 0.0\nsamples = 1\nvalue = [0, 1]"] ;
355 -> 356 ;
357 [label="x[2] <= 75849.855\ngini = 0.5\nsamples = 2\nvalue = [1, 1]"] ;
355 -> 357 ;
358 [label="gini = 0.0\nsamples = 1\nvalue = [1, 0]"] ;
357 -> 358 ;
359 [label="gini = 0.0\nsamples = 1\nvalue = [0, 1]"] ;
357 -> 359 ;
360 [label="x[3] <= 52957.389\ngini = 0.42\nsamples = 30\nvalue = [21, 9]"] ;
346 -> 360 ;
361 [label="x[2] <= 87432.801\ngini = 0.375\nsamples = 28\nvalue = [21, 7]"] ;
360 -> 361 ;
362 [label="gini = 0.0\nsamples = 8\nvalue = [8, 0]"] ;
361 -> 362 ;
363 [label="x[2] <= 88707.195\ngini = 0.455\nsamples = 20\nvalue = [13, 7]"] ;
361 -> 363 ;
364 [label="gini = 0.0\nsamples = 2\nvalue = [0, 2]"] ;
363 -> 364 ;
365 [label="x[3] <= 30525.905\ngini = 0.401\nsamples = 18\nvalue = [13, 5]"] ;
363 -> 365 ;
366 [label="gini = 0.0\nsamples = 1\nvalue = [0, 1]"] ;
365 -> 366 ;
367 [label="x[2] <= 99087.301\ngini = 0.36\nsamples = 17\nvalue = [13, 4]"] ;
365 -> 367 ;
368 [label="x[3] <= 41163.221\ngini = 0.305\nsamples = 16\nvalue = [13, 3]"] ;
367 -> 368 ;
369 [label="gini = 0.0\nsamples = 5\nvalue = [5, 0]"] ;
368 -> 369 ;
370 [label="x[3] <= 42626.5\ngini = 0.397\nsamples = 11\nvalue = [8, 3]"] ;
368 -> 370 ;
371 [label="gini = 0.0\nsamples = 1\nvalue = [0, 1]"] ;
370 -> 371 ;
372 [label="x[2] <= 93348.59\ngini = 0.32\nsamples = 10\nvalue = [8, 2]"] ;
370 -> 372 ;
373 [label="x[2] <= 91592.098\ngini = 0.5\nsamples = 4\nvalue = [2, 2]"] ;
372 -> 373 ;
374 [label="gini = 0.0\nsamples = 2\nvalue = [2, 0]"] ;
373 -> 374 ;
375 [label="gini = 0.0\nsamples = 2\nvalue = [0, 2]"] ;
373 -> 375 ;
376 [label="gini = 0.0\nsamples = 6\nvalue = [6, 0]"] ;
372 -> 376 ;
377 [label="gini = 0.0\nsamples = 1\nvalue = [0, 1]"] ;
367 -> 377 ;
378 [label="gini = 0.0\nsamples = 2\nvalue = [0, 2]"] ;
360 -> 378 ;
379 [label="x[2] <= 92744.668\ngini = 0.408\nsamples = 14\nvalue = [4, 10]"] ;
337 -> 379 ;
380 [label="x[1] <= 3.5\ngini = 0.198\nsamples = 9\nvalue = [1, 8]"] ;
379 -> 380 ;
381 [label="gini = 0.0\nsamples = 6\nvalue = [0, 6]"] ;
380 -> 381 ;
382 [label="x[3] <= 56635.4\ngini = 0.444\nsamples = 3\nvalue = [1, 2]"] ;
380 -> 382 ;
383 [label="gini = 0.0\nsamples = 1\nvalue = [0, 1]"] ;
382 -> 383 ;
384 [label="x[3] <= 57956.395\ngini = 0.5\nsamples = 2\nvalue = [1, 1]"] ;
382 -> 384 ;
385 [label="gini = 0.0\nsamples = 1\nvalue = [1, 0]"] ;
384 -> 385 ;
386 [label="gini = 0.0\nsamples = 1\nvalue = [0, 1]"] ;
384 -> 386 ;
387 [label="x[1] <= 0.5\ngini = 0.48\nsamples = 5\nvalue = [3, 2]"] ;
379 -> 387 ;
388 [label="x[2] <= 99399.305\ngini = 0.444\nsamples = 3\nvalue = [1, 2]"] ;
387 -> 388 ;
389 [label="gini = 0.0\nsamples = 2\nvalue = [0, 2]"] ;
388 -> 389 ;
390 [label="gini = 0.0\nsamples = 1\nvalue = [1, 0]"] ;
388 -> 390 ;
391 [label="gini = 0.0\nsamples = 2\nvalue = [2, 0]"] ;
387 -> 391 ;
392 [label="gini = 0.0\nsamples = 8\nvalue = [8, 0]"] ;
336 -> 392 ;
393 [label="x[2] <= 91092.355\ngini = 0.484\nsamples = 51\nvalue = [21, 30]"] ;
335 -> 393 ;
394 [label="x[2] <= 87779.109\ngini = 0.5\nsamples = 39\nvalue = [19, 20]"] ;
393 -> 394 ;
395 [label="x[3] <= 72023.332\ngini = 0.478\nsamples = 33\nvalue = [13, 20]"] ;
394 -> 395 ;
396 [label="x[2] <= 83274.266\ngini = 0.337\nsamples = 14\nvalue = [3, 11]"] ;
395 -> 396 ;
397 [label="x[2] <= 77408.402\ngini = 0.444\nsamples = 9\nvalue = [3, 6]"] ;
396 -> 397 ;
398 [label="x[1] <= 3.5\ngini = 0.278\nsamples = 6\nvalue = [1, 5]"] ;
397 -> 398 ;
399 [label="gini = 0.0\nsamples = 4\nvalue = [0, 4]"] ;
398 -> 399 ;
400 [label="x[2] <= 70912.855\ngini = 0.5\nsamples = 2\nvalue = [1, 1]"] ;
398 -> 400 ;
401 [label="gini = 0.0\nsamples = 1\nvalue = [0, 1]"] ;
400 -> 401 ;
402 [label="gini = 0.0\nsamples = 1\nvalue = [1, 0]"] ;
400 -> 402 ;
403 [label="x[1] <= 3.5\ngini = 0.444\nsamples = 3\nvalue = [2, 1]"] ;
397 -> 403 ;
404 [label="gini = 0.0\nsamples = 2\nvalue = [2, 0]"] ;
403 -> 404 ;
405 [label="gini = 0.0\nsamples = 1\nvalue = [0, 1]"] ;
403 -> 405 ;
406 [label="gini = 0.0\nsamples = 5\nvalue = [0, 5]"] ;
396 -> 406 ;
407 [label="x[0] <= 0.5\ngini = 0.499\nsamples = 19\nvalue = [10, 9]"] ;
395 -> 407 ;
408 [label="x[3] <= 74224.027\ngini = 0.426\nsamples = 13\nvalue = [4, 9]"] ;
407 -> 408 ;
409 [label="gini = 0.0\nsamples = 2\nvalue = [2, 0]"] ;
408 -> 409 ;
410 [label="x[3] <= 82753.969\ngini = 0.298\nsamples = 11\nvalue = [2, 9]"] ;
408 -> 410 ;
411 [label="x[3] <= 77754.008\ngini = 0.18\nsamples = 10\nvalue = [1, 9]"] ;
410 -> 411 ;
412 [label="x[3] <= 77081.367\ngini = 0.375\nsamples = 4\nvalue = [1, 3]"] ;
411 -> 412 ;
413 [label="gini = 0.0\nsamples = 3\nvalue = [0, 3]"] ;
412 -> 413 ;
414 [label="gini = 0.0\nsamples = 1\nvalue = [1, 0]"] ;
412 -> 414 ;
415 [label="gini = 0.0\nsamples = 6\nvalue = [0, 6]"] ;
411 -> 415 ;
416 [label="gini = 0.0\nsamples = 1\nvalue = [1, 0]"] ;
410 -> 416 ;
417 [label="gini = 0.0\nsamples = 6\nvalue = [6, 0]"] ;
407 -> 417 ;
418 [label="gini = 0.0\nsamples = 6\nvalue = [6, 0]"] ;
394 -> 418 ;
419 [label="x[3] <= 68709.609\ngini = 0.278\nsamples = 12\nvalue = [2, 10]"] ;
393 -> 419 ;
420 [label="x[3] <= 63630.83\ngini = 0.444\nsamples = 3\nvalue = [2, 1]"] ;
419 -> 420 ;
421 [label="gini = 0.0\nsamples = 1\nvalue = [1, 0]"] ;
420 -> 421 ;
422 [label="x[3] <= 65582.285\ngini = 0.5\nsamples = 2\nvalue = [1, 1]"] ;
420 -> 422 ;
423 [label="gini = 0.0\nsamples = 1\nvalue = [0, 1]"] ;
422 -> 423 ;
424 [label="gini = 0.0\nsamples = 1\nvalue = [1, 0]"] ;
422 -> 424 ;
425 [label="gini = 0.0\nsamples = 9\nvalue = [0, 9]"] ;
419 -> 425 ;
426 [label="x[3] <= 83052.0\ngini = 0.488\nsamples = 317\nvalue = [134, 183]"] ;
334 -> 426 ;
427 [label="x[1] <= 7.5\ngini = 0.486\nsamples = 314\nvalue = [131, 183]"] ;
426 -> 427 ;
428 [label="x[2] <= 92676.328\ngini = 0.442\nsamples = 91\nvalue = [30, 61]"] ;
427 -> 428 ;
429 [label="x[2] <= 84965.082\ngini = 0.413\nsamples = 72\nvalue = [21, 51]"] ;
428 -> 429 ;
430 [label="x[2] <= 83654.523\ngini = 0.455\nsamples = 60\nvalue = [21, 39]"] ;
429 -> 430 ;
431 [label="x[2] <= 75381.383\ngini = 0.413\nsamples = 55\nvalue = [16, 39]"] ;
430 -> 431 ;
432 [label="x[3] <= 74309.785\ngini = 0.491\nsamples = 30\nvalue = [13, 17]"] ;
431 -> 432 ;
433 [label="x[2] <= 65449.4\ngini = 0.454\nsamples = 23\nvalue = [8, 15]"] ;
432 -> 433 ;
434 [label="gini = 0.0\nsamples = 1\nvalue = [1, 0]"] ;
433 -> 434 ;
435 [label="x[2] <= 72223.285\ngini = 0.434\nsamples = 22\nvalue = [7, 15]"] ;
433 -> 435 ;
436 [label="x[2] <= 66251.703\ngini = 0.278\nsamples = 12\nvalue = [2, 10]"] ;
435 -> 436 ;
437 [label="x[3] <= 48937.715\ngini = 0.5\nsamples = 2\nvalue = [1, 1]"] ;
436 -> 437 ;
438 [label="gini = 0.0\nsamples = 1\nvalue = [1, 0]"] ;
437 -> 438 ;
439 [label="gini = 0.0\nsamples = 1\nvalue = [0, 1]"] ;
437 -> 439 ;
440 [label="x[1] <= 5.5\ngini = 0.18\nsamples = 10\nvalue = [1, 9]"] ;
436 -> 440 ;
441 [label="x[2] <= 70738.414\ngini = 0.444\nsamples = 3\nvalue = [1, 2]"] ;
440 -> 441 ;
442 [label="gini = 0.0\nsamples = 1\nvalue = [1, 0]"] ;
441 -> 442 ;
443 [label="gini = 0.0\nsamples = 2\nvalue = [0, 2]"] ;
441 -> 443 ;
444 [label="gini = 0.0\nsamples = 7\nvalue = [0, 7]"] ;
440 -> 444 ;
445 [label="x[3] <= 36929.25\ngini = 0.5\nsamples = 10\nvalue = [5, 5]"] ;
435 -> 445 ;
446 [label="gini = 0.0\nsamples = 2\nvalue = [2, 0]"] ;
445 -> 446 ;
447 [label="x[1] <= 5.5\ngini = 0.469\nsamples = 8\nvalue = [3, 5]"] ;
445 -> 447 ;
448 [label="gini = 0.0\nsamples = 3\nvalue = [0, 3]"] ;
447 -> 448 ;
449 [label="x[3] <= 59926.35\ngini = 0.48\nsamples = 5\nvalue = [3, 2]"] ;
447 -> 449 ;
450 [label="x[1] <= 6.5\ngini = 0.444\nsamples = 3\nvalue = [1, 2]"] ;
449 -> 450 ;
451 [label="gini = 0.0\nsamples = 1\nvalue = [1, 0]"] ;
450 -> 451 ;
452 [label="gini = 0.0\nsamples = 2\nvalue = [0, 2]"] ;
450 -> 452 ;
453 [label="gini = 0.0\nsamples = 2\nvalue = [2, 0]"] ;
449 -> 453 ;
454 [label="x[2] <= 68560.855\ngini = 0.408\nsamples = 7\nvalue = [5, 2]"] ;
432 -> 454 ;
455 [label="gini = 0.0\nsamples = 3\nvalue = [3, 0]"] ;
454 -> 455 ;
456 [label="x[2] <= 70381.523\ngini = 0.5\nsamples = 4\nvalue = [2, 2]"] ;
454 -> 456 ;
457 [label="gini = 0.0\nsamples = 2\nvalue = [0, 2]"] ;
456 -> 457 ;
458 [label="gini = 0.0\nsamples = 2\nvalue = [2, 0]"] ;
456 -> 458 ;
459 [label="x[2] <= 79697.184\ngini = 0.211\nsamples = 25\nvalue = [3, 22]"] ;
431 -> 459 ;
460 [label="x[2] <= 79214.762\ngini = 0.337\nsamples = 14\nvalue = [3, 11]"] ;
459 -> 460 ;
461 [label="x[1] <= 6.5\ngini = 0.153\nsamples = 12\nvalue = [1, 11]"] ;
460 -> 461 ;
462 [label="gini = 0.0\nsamples = 8\nvalue = [0, 8]"] ;
461 -> 462 ;
463 [label="x[2] <= 76473.473\ngini = 0.375\nsamples = 4\nvalue = [1, 3]"] ;
461 -> 463 ;
464 [label="gini = 0.0\nsamples = 2\nvalue = [0, 2]"] ;
463 -> 464 ;
465 [label="x[3] <= 64511.023\ngini = 0.5\nsamples = 2\nvalue = [1, 1]"] ;
463 -> 465 ;
466 [label="gini = 0.0\nsamples = 1\nvalue = [0, 1]"] ;
465 -> 466 ;
467 [label="gini = 0.0\nsamples = 1\nvalue = [1, 0]"] ;
465 -> 467 ;
468 [label="gini = 0.0\nsamples = 2\nvalue = [2, 0]"] ;
460 -> 468 ;
469 [label="gini = 0.0\nsamples = 11\nvalue = [0, 11]"] ;
459 -> 469 ;
470 [label="gini = 0.0\nsamples = 5\nvalue = [5, 0]"] ;
430 -> 470 ;
471 [label="gini = 0.0\nsamples = 12\nvalue = [0, 12]"] ;
429 -> 471 ;
472 [label="x[1] <= 5.5\ngini = 0.499\nsamples = 19\nvalue = [9, 10]"] ;
428 -> 472 ;
473 [label="x[2] <= 94378.879\ngini = 0.245\nsamples = 7\nvalue = [1, 6]"] ;
472 -> 473 ;
474 [label="x[2] <= 94042.539\ngini = 0.5\nsamples = 2\nvalue = [1, 1]"] ;
473 -> 474 ;
475 [label="gini = 0.0\nsamples = 1\nvalue = [0, 1]"] ;
474 -> 475 ;
476 [label="gini = 0.0\nsamples = 1\nvalue = [1, 0]"] ;
474 -> 476 ;
477 [label="gini = 0.0\nsamples = 5\nvalue = [0, 5]"] ;
473 -> 477 ;
478 [label="x[3] <= 76642.766\ngini = 0.444\nsamples = 12\nvalue = [8, 4]"] ;
472 -> 478 ;
479 [label="x[2] <= 94236.5\ngini = 0.5\nsamples = 8\nvalue = [4, 4]"] ;
478 -> 479 ;
480 [label="gini = 0.0\nsamples = 2\nvalue = [0, 2]"] ;
479 -> 480 ;
481 [label="x[3] <= 34583.471\ngini = 0.444\nsamples = 6\nvalue = [4, 2]"] ;
479 -> 481 ;
482 [label="gini = 0.0\nsamples = 1\nvalue = [0, 1]"] ;
481 -> 482 ;
483 [label="x[3] <= 67349.27\ngini = 0.32\nsamples = 5\nvalue = [4, 1]"] ;
481 -> 483 ;
484 [label="gini = 0.0\nsamples = 4\nvalue = [4, 0]"] ;
483 -> 484 ;
485 [label="gini = 0.0\nsamples = 1\nvalue = [0, 1]"] ;
483 -> 485 ;
486 [label="gini = 0.0\nsamples = 4\nvalue = [4, 0]"] ;
478 -> 486 ;
487 [label="x[3] <= 30854.131\ngini = 0.496\nsamples = 223\nvalue = [101, 122]"] ;
427 -> 487 ;
488 [label="gini = 0.0\nsamples = 3\nvalue = [0, 3]"] ;
487 -> 488 ;
489 [label="x[3] <= 32794.135\ngini = 0.497\nsamples = 220\nvalue = [101, 119]"] ;
487 -> 489 ;
490 [label="gini = 0.0\nsamples = 6\nvalue = [6, 0]"] ;
489 -> 490 ;
491 [label="x[3] <= 49229.797\ngini = 0.494\nsamples = 214\nvalue = [95, 119]"] ;
489 -> 491 ;
492 [label="x[3] <= 40243.225\ngini = 0.444\nsamples = 60\nvalue = [20, 40]"] ;
491 -> 492 ;
493 [label="x[3] <= 36786.746\ngini = 0.497\nsamples = 24\nvalue = [11, 13]"] ;
492 -> 493 ;
494 [label="x[2] <= 76455.023\ngini = 0.415\nsamples = 17\nvalue = [5, 12]"] ;
493 -> 494 ;
495 [label="x[1] <= 10.5\ngini = 0.48\nsamples = 5\nvalue = [3, 2]"] ;
494 -> 495 ;
496 [label="gini = 0.0\nsamples = 3\nvalue = [3, 0]"] ;
495 -> 496 ;
497 [label="gini = 0.0\nsamples = 2\nvalue = [0, 2]"] ;
495 -> 497 ;
498 [label="x[3] <= 36609.936\ngini = 0.278\nsamples = 12\nvalue = [2, 10]"] ;
494 -> 498 ;
499 [label="x[1] <= 13.5\ngini = 0.18\nsamples = 10\nvalue = [1, 9]"] ;
498 -> 499 ;
500 [label="gini = 0.0\nsamples = 8\nvalue = [0, 8]"] ;
499 -> 500 ;
501 [label="x[2] <= 88235.336\ngini = 0.5\nsamples = 2\nvalue = [1, 1]"] ;
499 -> 501 ;
502 [label="gini = 0.0\nsamples = 1\nvalue = [1, 0]"] ;
501 -> 502 ;
503 [label="gini = 0.0\nsamples = 1\nvalue = [0, 1]"] ;
501 -> 503 ;
504 [label="x[1] <= 11.0\ngini = 0.5\nsamples = 2\nvalue = [1, 1]"] ;
498 -> 504 ;
505 [label="gini = 0.0\nsamples = 1\nvalue = [1, 0]"] ;
504 -> 505 ;
506 [label="gini = 0.0\nsamples = 1\nvalue = [0, 1]"] ;
504 -> 506 ;
507 [label="x[1] <= 12.5\ngini = 0.245\nsamples = 7\nvalue = [6, 1]"] ;
493 -> 507 ;
508 [label="gini = 0.0\nsamples = 6\nvalue = [6, 0]"] ;
507 -> 508 ;
509 [label="gini = 0.0\nsamples = 1\nvalue = [0, 1]"] ;
507 -> 509 ;
510 [label="x[1] <= 14.5\ngini = 0.375\nsamples = 36\nvalue = [9, 27]"] ;
492 -> 510 ;
511 [label="x[2] <= 94068.48\ngini = 0.285\nsamples = 29\nvalue = [5, 24]"] ;
510 -> 511 ;
512 [label="x[0] <= 0.5\ngini = 0.227\nsamples = 23\nvalue = [3, 20]"] ;
511 -> 512 ;
513 [label="x[2] <= 68669.188\ngini = 0.375\nsamples = 8\nvalue = [2, 6]"] ;
512 -> 513 ;
514 [label="gini = 0.0\nsamples = 2\nvalue = [0, 2]"] ;
513 -> 514 ;
515 [label="x[2] <= 70735.215\ngini = 0.444\nsamples = 6\nvalue = [2, 4]"] ;
513 -> 515 ;
516 [label="gini = 0.0\nsamples = 1\nvalue = [1, 0]"] ;
515 -> 516 ;
517 [label="x[3] <= 47790.215\ngini = 0.32\nsamples = 5\nvalue = [1, 4]"] ;
515 -> 517 ;
518 [label="gini = 0.0\nsamples = 3\nvalue = [0, 3]"] ;
517 -> 518 ;
519 [label="x[2] <= 87716.73\ngini = 0.5\nsamples = 2\nvalue = [1, 1]"] ;
517 -> 519 ;
520 [label="gini = 0.0\nsamples = 1\nvalue = [1, 0]"] ;
519 -> 520 ;
521 [label="gini = 0.0\nsamples = 1\nvalue = [0, 1]"] ;
519 -> 521 ;
522 [label="x[1] <= 9.5\ngini = 0.124\nsamples = 15\nvalue = [1, 14]"] ;
512 -> 522 ;
523 [label="x[3] <= 44159.125\ngini = 0.375\nsamples = 4\nvalue = [1, 3]"] ;
522 -> 523 ;
524 [label="gini = 0.0\nsamples = 1\nvalue = [1, 0]"] ;
523 -> 524 ;
525 [label="gini = 0.0\nsamples = 3\nvalue = [0, 3]"] ;
523 -> 525 ;
526 [label="gini = 0.0\nsamples = 11\nvalue = [0, 11]"] ;
522 -> 526 ;
527 [label="x[3] <= 45447.789\ngini = 0.444\nsamples = 6\nvalue = [2, 4]"] ;
511 -> 527 ;
528 [label="gini = 0.0\nsamples = 4\nvalue = [0, 4]"] ;
527 -> 528 ;
529 [label="gini = 0.0\nsamples = 2\nvalue = [2, 0]"] ;
527 -> 529 ;
530 [label="x[3] <= 40782.916\ngini = 0.49\nsamples = 7\nvalue = [4, 3]"] ;
510 -> 530 ;
531 [label="gini = 0.0\nsamples = 1\nvalue = [0, 1]"] ;
530 -> 531 ;
532 [label="x[2] <= 97220.742\ngini = 0.444\nsamples = 6\nvalue = [4, 2]"] ;
530 -> 532 ;
533 [label="x[3] <= 47196.48\ngini = 0.32\nsamples = 5\nvalue = [4, 1]"] ;
532 -> 533 ;
534 [label="gini = 0.0\nsamples = 4\nvalue = [4, 0]"] ;
533 -> 534 ;
535 [label="gini = 0.0\nsamples = 1\nvalue = [0, 1]"] ;
533 -> 535 ;
536 [label="gini = 0.0\nsamples = 1\nvalue = [0, 1]"] ;
532 -> 536 ;
537 [label="x[3] <= 58703.68\ngini = 0.5\nsamples = 154\nvalue = [75, 79]"] ;
491 -> 537 ;
538 [label="x[2] <= 89665.547\ngini = 0.466\nsamples = 46\nvalue = [29, 17]"] ;
537 -> 538 ;
539 [label="x[2] <= 78356.867\ngini = 0.397\nsamples = 33\nvalue = [24, 9]"] ;
538 -> 539 ;
540 [label="x[2] <= 77786.086\ngini = 0.498\nsamples = 17\nvalue = [9, 8]"] ;
539 -> 540 ;
541 [label="x[3] <= 54380.494\ngini = 0.48\nsamples = 15\nvalue = [9, 6]"] ;
540 -> 541 ;
542 [label="x[2] <= 76002.055\ngini = 0.5\nsamples = 12\nvalue = [6, 6]"] ;
541 -> 542 ;
543 [label="x[3] <= 49746.889\ngini = 0.48\nsamples = 10\nvalue = [4, 6]"] ;
542 -> 543 ;
544 [label="x[1] <= 13.5\ngini = 0.375\nsamples = 4\nvalue = [3, 1]"] ;
543 -> 544 ;
545 [label="gini = 0.0\nsamples = 3\nvalue = [3, 0]"] ;
544 -> 545 ;
546 [label="gini = 0.0\nsamples = 1\nvalue = [0, 1]"] ;
544 -> 546 ;
547 [label="x[2] <= 69203.668\ngini = 0.278\nsamples = 6\nvalue = [1, 5]"] ;
543 -> 547 ;
548 [label="x[1] <= 11.5\ngini = 0.5\nsamples = 2\nvalue = [1, 1]"] ;
547 -> 548 ;
549 [label="gini = 0.0\nsamples = 1\nvalue = [1, 0]"] ;
548 -> 549 ;
550 [label="gini = 0.0\nsamples = 1\nvalue = [0, 1]"] ;
548 -> 550 ;
551 [label="gini = 0.0\nsamples = 4\nvalue = [0, 4]"] ;
547 -> 551 ;
552 [label="gini = 0.0\nsamples = 2\nvalue = [2, 0]"] ;
542 -> 552 ;
553 [label="gini = 0.0\nsamples = 3\nvalue = [3, 0]"] ;
541 -> 553 ;
554 [label="gini = 0.0\nsamples = 2\nvalue = [0, 2]"] ;
540 -> 554 ;
555 [label="x[1] <= 14.0\ngini = 0.117\nsamples = 16\nvalue = [15, 1]"] ;
539 -> 555 ;
556 [label="gini = 0.0\nsamples = 14\nvalue = [14, 0]"] ;
555 -> 556 ;
557 [label="x[2] <= 84864.566\ngini = 0.5\nsamples = 2\nvalue = [1, 1]"] ;
555 -> 557 ;
558 [label="gini = 0.0\nsamples = 1\nvalue = [0, 1]"] ;
557 -> 558 ;
559 [label="gini = 0.0\nsamples = 1\nvalue = [1, 0]"] ;
557 -> 559 ;
560 [label="x[2] <= 91348.574\ngini = 0.473\nsamples = 13\nvalue = [5, 8]"] ;
538 -> 560 ;
561 [label="gini = 0.0\nsamples = 2\nvalue = [0, 2]"] ;
560 -> 561 ;
562 [label="x[2] <= 93327.945\ngini = 0.496\nsamples = 11\nvalue = [5, 6]"] ;
560 -> 562 ;
563 [label="gini = 0.0\nsamples = 2\nvalue = [2, 0]"] ;
562 -> 563 ;
564 [label="x[3] <= 52928.414\ngini = 0.444\nsamples = 9\nvalue = [3, 6]"] ;
562 -> 564 ;
565 [label="x[2] <= 93822.809\ngini = 0.5\nsamples = 6\nvalue = [3, 3]"] ;
564 -> 565 ;
566 [label="gini = 0.0\nsamples = 2\nvalue = [0, 2]"] ;
565 -> 566 ;
567 [label="x[3] <= 50422.131\ngini = 0.375\nsamples = 4\nvalue = [3, 1]"] ;
565 -> 567 ;
568 [label="gini = 0.0\nsamples = 1\nvalue = [0, 1]"] ;
567 -> 568 ;
569 [label="gini = 0.0\nsamples = 3\nvalue = [3, 0]"] ;
567 -> 569 ;
570 [label="gini = 0.0\nsamples = 3\nvalue = [0, 3]"] ;
564 -> 570 ;
571 [label="x[2] <= 93674.035\ngini = 0.489\nsamples = 108\nvalue = [46, 62]"] ;
537 -> 571 ;
572 [label="x[3] <= 81167.348\ngini = 0.473\nsamples = 94\nvalue = [36, 58]"] ;
571 -> 572 ;
573 [label="x[3] <= 79171.363\ngini = 0.455\nsamples = 83\nvalue = [29, 54]"] ;
572 -> 573 ;
574 [label="x[1] <= 9.5\ngini = 0.474\nsamples = 75\nvalue = [29, 46]"] ;
573 -> 574 ;
575 [label="x[2] <= 79729.07\ngini = 0.469\nsamples = 16\nvalue = [10, 6]"] ;
574 -> 575 ;
576 [label="x[0] <= 0.5\ngini = 0.5\nsamples = 12\nvalue = [6, 6]"] ;
575 -> 576 ;
577 [label="x[2] <= 75044.285\ngini = 0.408\nsamples = 7\nvalue = [5, 2]"] ;
576 -> 577 ;
578 [label="x[3] <= 67654.168\ngini = 0.278\nsamples = 6\nvalue = [5, 1]"] ;
577 -> 578 ;
579 [label="x[3] <= 66254.686\ngini = 0.444\nsamples = 3\nvalue = [2, 1]"] ;
578 -> 579 ;
580 [label="gini = 0.0\nsamples = 2\nvalue = [2, 0]"] ;
579 -> 580 ;
581 [label="gini = 0.0\nsamples = 1\nvalue = [0, 1]"] ;
579 -> 581 ;
582 [label="gini = 0.0\nsamples = 3\nvalue = [3, 0]"] ;
578 -> 582 ;
583 [label="gini = 0.0\nsamples = 1\nvalue = [0, 1]"] ;
577 -> 583 ;
584 [label="x[2] <= 66862.0\ngini = 0.32\nsamples = 5\nvalue = [1, 4]"] ;
576 -> 584 ;
585 [label="x[3] <= 66839.959\ngini = 0.5\nsamples = 2\nvalue = [1, 1]"] ;
584 -> 585 ;
586 [label="gini = 0.0\nsamples = 1\nvalue = [0, 1]"] ;
585 -> 586 ;
587 [label="gini = 0.0\nsamples = 1\nvalue = [1, 0]"] ;
585 -> 587 ;
588 [label="gini = 0.0\nsamples = 3\nvalue = [0, 3]"] ;
584 -> 588 ;
589 [label="gini = 0.0\nsamples = 4\nvalue = [4, 0]"] ;
575 -> 589 ;
590 [label="x[1] <= 12.5\ngini = 0.437\nsamples = 59\nvalue = [19, 40]"] ;
574 -> 590 ;
591 [label="x[3] <= 64051.494\ngini = 0.219\nsamples = 24\nvalue = [3, 21]"] ;
590 -> 591 ;
592 [label="x[3] <= 61482.869\ngini = 0.375\nsamples = 12\nvalue = [3, 9]"] ;
591 -> 592 ;
593 [label="gini = 0.0\nsamples = 6\nvalue = [0, 6]"] ;
592 -> 593 ;
594 [label="x[3] <= 62664.326\ngini = 0.5\nsamples = 6\nvalue = [3, 3]"] ;
592 -> 594 ;
595 [label="gini = 0.0\nsamples = 2\nvalue = [2, 0]"] ;
594 -> 595 ;
596 [label="x[2] <= 70912.004\ngini = 0.375\nsamples = 4\nvalue = [1, 3]"] ;
594 -> 596 ;
597 [label="gini = 0.0\nsamples = 1\nvalue = [1, 0]"] ;
596 -> 597 ;
598 [label="gini = 0.0\nsamples = 3\nvalue = [0, 3]"] ;
596 -> 598 ;
599 [label="gini = 0.0\nsamples = 12\nvalue = [0, 12]"] ;
591 -> 599 ;
600 [label="x[2] <= 92364.105\ngini = 0.496\nsamples = 35\nvalue = [16, 19]"] ;
590 -> 600 ;
601 [label="x[2] <= 89250.551\ngini = 0.489\nsamples = 33\nvalue = [14, 19]"] ;
600 -> 601 ;
602 [label="x[1] <= 13.5\ngini = 0.5\nsamples = 28\nvalue = [14, 14]"] ;
601 -> 602 ;
603 [label="x[2] <= 72630.793\ngini = 0.278\nsamples = 6\nvalue = [5, 1]"] ;
602 -> 603 ;
604 [label="gini = 0.0\nsamples = 1\nvalue = [0, 1]"] ;
603 -> 604 ;
605 [label="gini = 0.0\nsamples = 5\nvalue = [5, 0]"] ;
603 -> 605 ;
606 [label="x[3] <= 77428.984\ngini = 0.483\nsamples = 22\nvalue = [9, 13]"] ;
602 -> 606 ;
607 [label="x[3] <= 74832.766\ngini = 0.455\nsamples = 20\nvalue = [7, 13]"] ;
606 -> 607 ;
608 [label="x[3] <= 67134.645\ngini = 0.492\nsamples = 16\nvalue = [7, 9]"] ;
607 -> 608 ;
609 [label="x[3] <= 65086.16\ngini = 0.375\nsamples = 8\nvalue = [2, 6]"] ;
608 -> 609 ;
610 [label="x[3] <= 61198.215\ngini = 0.48\nsamples = 5\nvalue = [2, 3]"] ;
609 -> 610 ;
611 [label="gini = 0.0\nsamples = 2\nvalue = [0, 2]"] ;
610 -> 611 ;
612 [label="x[2] <= 82733.414\ngini = 0.444\nsamples = 3\nvalue = [2, 1]"] ;
610 -> 612 ;
613 [label="gini = 0.0\nsamples = 2\nvalue = [2, 0]"] ;
612 -> 613 ;
614 [label="gini = 0.0\nsamples = 1\nvalue = [0, 1]"] ;
612 -> 614 ;
615 [label="gini = 0.0\nsamples = 3\nvalue = [0, 3]"] ;
609 -> 615 ;
616 [label="x[2] <= 77442.387\ngini = 0.469\nsamples = 8\nvalue = [5, 3]"] ;
608 -> 616 ;
617 [label="x[2] <= 70349.668\ngini = 0.32\nsamples = 5\nvalue = [4, 1]"] ;
616 -> 617 ;
618 [label="gini = 0.0\nsamples = 2\nvalue = [2, 0]"] ;
617 -> 618 ;
619 [label="x[2] <= 72922.125\ngini = 0.444\nsamples = 3\nvalue = [2, 1]"] ;
617 -> 619 ;
620 [label="gini = 0.0\nsamples = 1\nvalue = [0, 1]"] ;
619 -> 620 ;
621 [label="gini = 0.0\nsamples = 2\nvalue = [2, 0]"] ;
619 -> 621 ;
622 [label="x[2] <= 83492.586\ngini = 0.444\nsamples = 3\nvalue = [1, 2]"] ;
616 -> 622 ;
623 [label="gini = 0.0\nsamples = 2\nvalue = [0, 2]"] ;
622 -> 623 ;
624 [label="gini = 0.0\nsamples = 1\nvalue = [1, 0]"] ;
622 -> 624 ;
625 [label="gini = 0.0\nsamples = 4\nvalue = [0, 4]"] ;
607 -> 625 ;
626 [label="gini = 0.0\nsamples = 2\nvalue = [2, 0]"] ;
606 -> 626 ;
627 [label="gini = 0.0\nsamples = 5\nvalue = [0, 5]"] ;
601 -> 627 ;
628 [label="gini = 0.0\nsamples = 2\nvalue = [2, 0]"] ;
600 -> 628 ;
629 [label="gini = 0.0\nsamples = 8\nvalue = [0, 8]"] ;
573 -> 629 ;
630 [label="x[3] <= 81953.848\ngini = 0.463\nsamples = 11\nvalue = [7, 4]"] ;
572 -> 630 ;
631 [label="gini = 0.0\nsamples = 5\nvalue = [5, 0]"] ;
630 -> 631 ;
632 [label="x[2] <= 85132.945\ngini = 0.444\nsamples = 6\nvalue = [2, 4]"] ;
630 -> 632 ;
633 [label="gini = 0.0\nsamples = 2\nvalue = [0, 2]"] ;
632 -> 633 ;
634 [label="x[2] <= 89828.102\ngini = 0.5\nsamples = 4\nvalue = [2, 2]"] ;
632 -> 634 ;
635 [label="gini = 0.0\nsamples = 2\nvalue = [2, 0]"] ;
634 -> 635 ;
636 [label="gini = 0.0\nsamples = 2\nvalue = [0, 2]"] ;
634 -> 636 ;
637 [label="x[1] <= 11.5\ngini = 0.408\nsamples = 14\nvalue = [10, 4]"] ;
571 -> 637 ;
638 [label="x[1] <= 10.5\ngini = 0.49\nsamples = 7\nvalue = [3, 4]"] ;
637 -> 638 ;
639 [label="x[3] <= 73163.469\ngini = 0.48\nsamples = 5\nvalue = [3, 2]"] ;
638 -> 639 ;
640 [label="gini = 0.0\nsamples = 2\nvalue = [2, 0]"] ;
639 -> 640 ;
641 [label="x[3] <= 74873.578\ngini = 0.444\nsamples = 3\nvalue = [1, 2]"] ;
639 -> 641 ;
642 [label="gini = 0.0\nsamples = 1\nvalue = [0, 1]"] ;
641 -> 642 ;
643 [label="x[2] <= 98846.02\ngini = 0.5\nsamples = 2\nvalue = [1, 1]"] ;
641 -> 643 ;
644 [label="gini = 0.0\nsamples = 1\nvalue = [0, 1]"] ;
643 -> 644 ;
645 [label="gini = 0.0\nsamples = 1\nvalue = [1, 0]"] ;
643 -> 645 ;
646 [label="gini = 0.0\nsamples = 2\nvalue = [0, 2]"] ;
638 -> 646 ;
647 [label="gini = 0.0\nsamples = 7\nvalue = [7, 0]"] ;
637 -> 647 ;
648 [label="gini = 0.0\nsamples = 3\nvalue = [3, 0]"] ;
426 -> 648 ;
649 [label="x[3] <= 85238.918\ngini = 0.425\nsamples = 88\nvalue = [27, 61]"] ;
3 -> 649 ;
650 [label="x[3] <= 84537.297\ngini = 0.238\nsamples = 29\nvalue = [4, 25]"] ;
649 -> 650 ;
651 [label="gini = 0.0\nsamples = 11\nvalue = [0, 11]"] ;
650 -> 651 ;
652 [label="x[3] <= 84819.543\ngini = 0.346\nsamples = 18\nvalue = [4, 14]"] ;
650 -> 652 ;
653 [label="x[1] <= 9.5\ngini = 0.5\nsamples = 6\nvalue = [3, 3]"] ;
652 -> 653 ;
654 [label="x[3] <= 84801.91\ngini = 0.375\nsamples = 4\nvalue = [1, 3]"] ;
653 -> 654 ;
655 [label="gini = 0.0\nsamples = 3\nvalue = [0, 3]"] ;
654 -> 655 ;
656 [label="gini = 0.0\nsamples = 1\nvalue = [1, 0]"] ;
654 -> 656 ;
657 [label="gini = 0.0\nsamples = 2\nvalue = [2, 0]"] ;
653 -> 657 ;
658 [label="x[1] <= 7.0\ngini = 0.153\nsamples = 12\nvalue = [1, 11]"] ;
652 -> 658 ;
659 [label="x[2] <= 49930.234\ngini = 0.375\nsamples = 4\nvalue = [1, 3]"] ;
658 -> 659 ;
660 [label="gini = 0.0\nsamples = 3\nvalue = [0, 3]"] ;
659 -> 660 ;
661 [label="gini = 0.0\nsamples = 1\nvalue = [1, 0]"] ;
659 -> 661 ;
662 [label="gini = 0.0\nsamples = 8\nvalue = [0, 8]"] ;
658 -> 662 ;
663 [label="x[3] <= 86075.148\ngini = 0.476\nsamples = 59\nvalue = [23, 36]"] ;
649 -> 663 ;
664 [label="x[1] <= 5.0\ngini = 0.475\nsamples = 18\nvalue = [11, 7]"] ;
663 -> 664 ;
665 [label="gini = 0.0\nsamples = 3\nvalue = [0, 3]"] ;
664 -> 665 ;
666 [label="x[3] <= 85450.156\ngini = 0.391\nsamples = 15\nvalue = [11, 4]"] ;
664 -> 666 ;
667 [label="x[3] <= 85266.09\ngini = 0.444\nsamples = 3\nvalue = [1, 2]"] ;
666 -> 667 ;
668 [label="gini = 0.0\nsamples = 1\nvalue = [1, 0]"] ;
667 -> 668 ;
669 [label="gini = 0.0\nsamples = 2\nvalue = [0, 2]"] ;
667 -> 669 ;
670 [label="x[2] <= 91638.93\ngini = 0.278\nsamples = 12\nvalue = [10, 2]"] ;
666 -> 670 ;
671 [label="x[2] <= 60160.725\ngini = 0.165\nsamples = 11\nvalue = [10, 1]"] ;
670 -> 671 ;
672 [label="x[2] <= 53203.205\ngini = 0.375\nsamples = 4\nvalue = [3, 1]"] ;
671 -> 672 ;
673 [label="gini = 0.0\nsamples = 3\nvalue = [3, 0]"] ;
672 -> 673 ;
674 [label="gini = 0.0\nsamples = 1\nvalue = [0, 1]"] ;
672 -> 674 ;
675 [label="gini = 0.0\nsamples = 7\nvalue = [7, 0]"] ;
671 -> 675 ;
676 [label="gini = 0.0\nsamples = 1\nvalue = [0, 1]"] ;
670 -> 676 ;
677 [label="x[2] <= 96683.902\ngini = 0.414\nsamples = 41\nvalue = [12, 29]"] ;
663 -> 677 ;
678 [label="x[2] <= 61141.014\ngini = 0.381\nsamples = 39\nvalue = [10, 29]"] ;
677 -> 678 ;
679 [label="x[2] <= 59677.104\ngini = 0.475\nsamples = 18\nvalue = [7, 11]"] ;
678 -> 679 ;
680 [label="x[3] <= 87997.535\ngini = 0.43\nsamples = 16\nvalue = [5, 11]"] ;
679 -> 680 ;
681 [label="x[3] <= 87554.922\ngini = 0.486\nsamples = 12\nvalue = [5, 7]"] ;
680 -> 681 ;
682 [label="x[1] <= 2.5\ngini = 0.346\nsamples = 9\nvalue = [2, 7]"] ;
681 -> 682 ;
683 [label="gini = 0.0\nsamples = 4\nvalue = [0, 4]"] ;
682 -> 683 ;
684 [label="x[3] <= 86985.02\ngini = 0.48\nsamples = 5\nvalue = [2, 3]"] ;
682 -> 684 ;
685 [label="x[2] <= 38010.949\ngini = 0.444\nsamples = 3\nvalue = [2, 1]"] ;
684 -> 685 ;
686 [label="gini = 0.0\nsamples = 1\nvalue = [0, 1]"] ;
685 -> 686 ;
687 [label="gini = 0.0\nsamples = 2\nvalue = [2, 0]"] ;
685 -> 687 ;
688 [label="gini = 0.0\nsamples = 2\nvalue = [0, 2]"] ;
684 -> 688 ;
689 [label="gini = 0.0\nsamples = 3\nvalue = [3, 0]"] ;
681 -> 689 ;
690 [label="gini = 0.0\nsamples = 4\nvalue = [0, 4]"] ;
680 -> 690 ;
691 [label="gini = 0.0\nsamples = 2\nvalue = [2, 0]"] ;
679 -> 691 ;
692 [label="x[1] <= 7.5\ngini = 0.245\nsamples = 21\nvalue = [3, 18]"] ;
678 -> 692 ;
693 [label="gini = 0.0\nsamples = 11\nvalue = [0, 11]"] ;
692 -> 693 ;
694 [label="x[3] <= 87382.512\ngini = 0.42\nsamples = 10\nvalue = [3, 7]"] ;
692 -> 694 ;
695 [label="x[2] <= 85889.855\ngini = 0.444\nsamples = 3\nvalue = [2, 1]"] ;
694 -> 695 ;
696 [label="gini = 0.0\nsamples = 2\nvalue = [2, 0]"] ;
695 -> 696 ;
697 [label="gini = 0.0\nsamples = 1\nvalue = [0, 1]"] ;
695 -> 697 ;
698 [label="x[3] <= 88197.301\ngini = 0.245\nsamples = 7\nvalue = [1, 6]"] ;
694 -> 698 ;
699 [label="gini = 0.0\nsamples = 4\nvalue = [0, 4]"] ;
698 -> 699 ;
700 [label="x[3] <= 88250.773\ngini = 0.444\nsamples = 3\nvalue = [1, 2]"] ;
698 -> 700 ;
701 [label="gini = 0.0\nsamples = 1\nvalue = [1, 0]"] ;
700 -> 701 ;
702 [label="gini = 0.0\nsamples = 2\nvalue = [0, 2]"] ;
700 -> 702 ;
703 [label="gini = 0.0\nsamples = 2\nvalue = [2, 0]"] ;
677 -> 703 ;
704 [label="x[2] <= 99904.133\ngini = 0.5\nsamples = 7360\nvalue = [3708, 3652]"] ;
2 -> 704 ;
705 [label="x[0] <= 14.5\ngini = 0.5\nsamples = 7348\nvalue = [3706, 3642]"] ;
704 -> 705 ;
706 [label="x[2] <= 99634.129\ngini = 0.5\nsamples = 6836\nvalue = [3472, 3364]"] ;
705 -> 706 ;
707 [label="x[2] <= 97669.641\ngini = 0.5\nsamples = 6815\nvalue = [3456, 3359]"] ;
706 -> 707 ;
708 [label="x[2] <= 96823.527\ngini = 0.5\nsamples = 6611\nvalue = [3367, 3244]"] ;
707 -> 708 ;
709 [label="x[2] <= 96048.375\ngini = 0.5\nsamples = 6522\nvalue = [3312, 3210]"] ;
708 -> 709 ;
710 [label="x[2] <= 95993.141\ngini = 0.5\nsamples = 6433\nvalue = [3280, 3153]"] ;
709 -> 710 ;
711 [label="x[2] <= 95939.781\ngini = 0.5\nsamples = 6428\nvalue = [3275, 3153]"] ;
710 -> 711 ;
712 [label="x[2] <= 30057.565\ngini = 0.5\nsamples = 6423\nvalue = [3275, 3148]"] ;
711 -> 712 ;
713 [label="x[3] <= 65220.344\ngini = 0.245\nsamples = 7\nvalue = [6, 1]"] ;
712 -> 713 ;
714 [label="gini = 0.0\nsamples = 1\nvalue = [0, 1]"] ;
713 -> 714 ;
715 [label="gini = 0.0\nsamples = 6\nvalue = [6, 0]"] ;
713 -> 715 ;
716 [label="x[2] <= 30520.71\ngini = 0.5\nsamples = 6416\nvalue = [3269, 3147]"] ;
712 -> 716 ;
717 [label="x[2] <= 30480.165\ngini = 0.451\nsamples = 32\nvalue = [11, 21]"] ;
716 -> 717 ;
718 [label="x[3] <= 58421.82\ngini = 0.483\nsamples = 27\nvalue = [11, 16]"] ;
717 -> 718 ;
719 [label="x[0] <= 13.5\ngini = 0.355\nsamples = 13\nvalue = [3, 10]"] ;
718 -> 719 ;
720 [label="x[2] <= 30190.561\ngini = 0.278\nsamples = 12\nvalue = [2, 10]"] ;
719 -> 720 ;
721 [label="gini = 0.0\nsamples = 6\nvalue = [0, 6]"] ;
720 -> 721 ;
722 [label="x[2] <= 30400.58\ngini = 0.444\nsamples = 6\nvalue = [2, 4]"] ;
720 -> 722 ;
723 [label="x[3] <= 52126.516\ngini = 0.444\nsamples = 3\nvalue = [2, 1]"] ;
722 -> 723 ;
724 [label="gini = 0.0\nsamples = 2\nvalue = [2, 0]"] ;
723 -> 724 ;
725 [label="gini = 0.0\nsamples = 1\nvalue = [0, 1]"] ;
723 -> 725 ;
726 [label="gini = 0.0\nsamples = 3\nvalue = [0, 3]"] ;
722 -> 726 ;
727 [label="gini = 0.0\nsamples = 1\nvalue = [1, 0]"] ;
719 -> 727 ;
728 [label="x[0] <= 11.0\ngini = 0.49\nsamples = 14\nvalue = [8, 6]"] ;
718 -> 728 ;
729 [label="x[2] <= 30350.186\ngini = 0.444\nsamples = 12\nvalue = [8, 4]"] ;
728 -> 729 ;
730 [label="x[1] <= 13.0\ngini = 0.494\nsamples = 9\nvalue = [5, 4]"] ;
729 -> 730 ;
731 [label="x[1] <= 3.0\ngini = 0.444\nsamples = 6\nvalue = [2, 4]"] ;
730 -> 731 ;
732 [label="x[0] <= 6.5\ngini = 0.444\nsamples = 3\nvalue = [2, 1]"] ;
731 -> 732 ;
733 [label="gini = 0.0\nsamples = 1\nvalue = [0, 1]"] ;
732 -> 733 ;
734 [label="gini = 0.0\nsamples = 2\nvalue = [2, 0]"] ;
732 -> 734 ;
735 [label="gini = 0.0\nsamples = 3\nvalue = [0, 3]"] ;
731 -> 735 ;
736 [label="gini = 0.0\nsamples = 3\nvalue = [3, 0]"] ;
730 -> 736 ;
737 [label="gini = 0.0\nsamples = 3\nvalue = [3, 0]"] ;
729 -> 737 ;
738 [label="gini = 0.0\nsamples = 2\nvalue = [0, 2]"] ;
728 -> 738 ;
739 [label="gini = 0.0\nsamples = 5\nvalue = [0, 5]"] ;
717 -> 739 ;
740 [label="x[2] <= 30783.125\ngini = 0.5\nsamples = 6384\nvalue = [3258, 3126]"] ;
716 -> 740 ;
741 [label="x[3] <= 60361.125\ngini = 0.32\nsamples = 25\nvalue = [20, 5]"] ;
740 -> 741 ;
742 [label="gini = 0.0\nsamples = 13\nvalue = [13, 0]"] ;
741 -> 742 ;
743 [label="x[1] <= 9.0\ngini = 0.486\nsamples = 12\nvalue = [7, 5]"] ;
741 -> 743 ;
744 [label="x[1] <= 2.5\ngini = 0.408\nsamples = 7\nvalue = [2, 5]"] ;
743 -> 744 ;
745 [label="x[2] <= 30672.125\ngini = 0.444\nsamples = 3\nvalue = [2, 1]"] ;
744 -> 745 ;
746 [label="gini = 0.0\nsamples = 2\nvalue = [2, 0]"] ;
745 -> 746 ;
747 [label="gini = 0.0\nsamples = 1\nvalue = [0, 1]"] ;
745 -> 747 ;
748 [label="gini = 0.0\nsamples = 4\nvalue = [0, 4]"] ;
744 -> 748 ;
749 [label="gini = 0.0\nsamples = 5\nvalue = [5, 0]"] ;
743 -> 749 ;
750 [label="x[2] <= 30913.215\ngini = 0.5\nsamples = 6359\nvalue = [3238, 3121]"] ;
740 -> 750 ;
751 [label="x[2] <= 30858.811\ngini = 0.36\nsamples = 17\nvalue = [4, 13]"] ;
750 -> 751 ;
752 [label="x[1] <= 10.5\ngini = 0.494\nsamples = 9\nvalue = [4, 5]"] ;
751 -> 752 ;
753 [label="x[2] <= 30845.476\ngini = 0.408\nsamples = 7\nvalue = [2, 5]"] ;
752 -> 753 ;
754 [label="x[3] <= 55399.375\ngini = 0.278\nsamples = 6\nvalue = [1, 5]"] ;
753 -> 754 ;
755 [label="gini = 0.0\nsamples = 4\nvalue = [0, 4]"] ;
754 -> 755 ;
756 [label="x[0] <= 5.5\ngini = 0.5\nsamples = 2\nvalue = [1, 1]"] ;
754 -> 756 ;
757 [label="gini = 0.0\nsamples = 1\nvalue = [0, 1]"] ;
756 -> 757 ;
758 [label="gini = 0.0\nsamples = 1\nvalue = [1, 0]"] ;
756 -> 758 ;
759 [label="gini = 0.0\nsamples = 1\nvalue = [1, 0]"] ;
753 -> 759 ;
760 [label="gini = 0.0\nsamples = 2\nvalue = [2, 0]"] ;
752 -> 760 ;
761 [label="gini = 0.0\nsamples = 8\nvalue = [0, 8]"] ;
751 -> 761 ;
762 [label="x[2] <= 95891.207\ngini = 0.5\nsamples = 6342\nvalue = [3234, 3108]"] ;
750 -> 762 ;
763 [label="x[1] <= 1.5\ngini = 0.5\nsamples = 6339\nvalue = [3231, 3108]"] ;
762 -> 763 ;
764 [label="x[2] <= 95456.535\ngini = 0.497\nsamples = 787\nvalue = [422, 365]"] ;
763 -> 764 ;
765 [label="x[2] <= 95070.352\ngini = 0.498\nsamples = 782\nvalue = [417, 365]"] ;
764 -> 765 ;
766 [label="x[2] <= 69294.633\ngini = 0.497\nsamples = 778\nvalue = [417, 361]"] ;
765 -> 766 ;
767 [label="x[2] <= 67538.078\ngini = 0.492\nsamples = 467\nvalue = [263, 204]"] ;
766 -> 767 ;
768 [label="x[2] <= 65616.707\ngini = 0.496\nsamples = 440\nvalue = [240, 200]"] ;
767 -> 768 ;
769 [label="x[3] <= 85864.047\ngini = 0.492\nsamples = 417\nvalue = [235, 182]"] ;
768 -> 769 ;
770 [label="x[2] <= 65174.08\ngini = 0.489\nsamples = 407\nvalue = [233, 174]"] ;
769 -> 770 ;
771 [label="x[2] <= 64678.561\ngini = 0.491\nsamples = 402\nvalue = [228, 174]"] ;
770 -> 771 ;
772 [label="x[2] <= 64196.766\ngini = 0.49\nsamples = 399\nvalue = [228, 171]"] ;
771 -> 772 ;
773 [label="x[3] <= 43346.994\ngini = 0.492\nsamples = 393\nvalue = [222, 171]"] ;
772 -> 773 ;
774 [label="x[2] <= 56068.625\ngini = 0.458\nsamples = 93\nvalue = [60, 33]"] ;
773 -> 774 ;
775 [label="x[3] <= 35440.334\ngini = 0.399\nsamples = 69\nvalue = [50, 19]"] ;
774 -> 775 ;
776 [label="x[0] <= 2.5\ngini = 0.257\nsamples = 33\nvalue = [28, 5]"] ;
775 -> 776 ;
777 [label="x[3] <= 33042.104\ngini = 0.444\nsamples = 3\nvalue = [1, 2]"] ;
776 -> 777 ;
778 [label="gini = 0.0\nsamples = 2\nvalue = [0, 2]"] ;
777 -> 778 ;
779 [label="gini = 0.0\nsamples = 1\nvalue = [1, 0]"] ;
777 -> 779 ;
780 [label="x[2] <= 50121.93\ngini = 0.18\nsamples = 30\nvalue = [27, 3]"] ;
776 -> 780 ;
781 [label="x[2] <= 35509.574\ngini = 0.077\nsamples = 25\nvalue = [24, 1]"] ;
780 -> 781 ;
782 [label="x[2] <= 34376.189\ngini = 0.278\nsamples = 6\nvalue = [5, 1]"] ;
781 -> 782 ;
783 [label="gini = 0.0\nsamples = 5\nvalue = [5, 0]"] ;
782 -> 783 ;
784 [label="gini = 0.0\nsamples = 1\nvalue = [0, 1]"] ;
782 -> 784 ;
785 [label="gini = 0.0\nsamples = 19\nvalue = [19, 0]"] ;
781 -> 785 ;
786 [label="x[2] <= 54789.135\ngini = 0.48\nsamples = 5\nvalue = [3, 2]"] ;
780 -> 786 ;
787 [label="gini = 0.0\nsamples = 2\nvalue = [0, 2]"] ;
786 -> 787 ;
788 [label="gini = 0.0\nsamples = 3\nvalue = [3, 0]"] ;
786 -> 788 ;
789 [label="x[3] <= 36650.051\ngini = 0.475\nsamples = 36\nvalue = [22, 14]"] ;
775 -> 789 ;
790 [label="x[0] <= 12.5\ngini = 0.245\nsamples = 7\nvalue = [1, 6]"] ;
789 -> 790 ;
791 [label="gini = 0.0\nsamples = 6\nvalue = [0, 6]"] ;
790 -> 791 ;
792 [label="gini = 0.0\nsamples = 1\nvalue = [1, 0]"] ;
790 -> 792 ;
793 [label="x[2] <= 43402.68\ngini = 0.4\nsamples = 29\nvalue = [21, 8]"] ;
789 -> 793 ;
794 [label="x[3] <= 42597.66\ngini = 0.484\nsamples = 17\nvalue = [10, 7]"] ;
793 -> 794 ;
795 [label="x[0] <= 13.5\ngini = 0.497\nsamples = 13\nvalue = [6, 7]"] ;
794 -> 795 ;
796 [label="x[3] <= 37343.455\ngini = 0.486\nsamples = 12\nvalue = [5, 7]"] ;
795 -> 796 ;
797 [label="gini = 0.0\nsamples = 1\nvalue = [1, 0]"] ;
796 -> 797 ;
798 [label="x[3] <= 41900.859\ngini = 0.463\nsamples = 11\nvalue = [4, 7]"] ;
796 -> 798 ;
799 [label="x[3] <= 39444.08\ngini = 0.375\nsamples = 8\nvalue = [2, 6]"] ;
798 -> 799 ;
800 [label="x[3] <= 39049.67\ngini = 0.5\nsamples = 4\nvalue = [2, 2]"] ;
799 -> 800 ;
801 [label="gini = 0.0\nsamples = 2\nvalue = [0, 2]"] ;
800 -> 801 ;
802 [label="gini = 0.0\nsamples = 2\nvalue = [2, 0]"] ;
800 -> 802 ;
803 [label="gini = 0.0\nsamples = 4\nvalue = [0, 4]"] ;
799 -> 803 ;
804 [label="x[3] <= 42338.984\ngini = 0.444\nsamples = 3\nvalue = [2, 1]"] ;
798 -> 804 ;
805 [label="gini = 0.0\nsamples = 2\nvalue = [2, 0]"] ;
804 -> 805 ;
806 [label="gini = 0.0\nsamples = 1\nvalue = [0, 1]"] ;
804 -> 806 ;
807 [label="gini = 0.0\nsamples = 1\nvalue = [1, 0]"] ;
795 -> 807 ;
808 [label="gini = 0.0\nsamples = 4\nvalue = [4, 0]"] ;
794 -> 808 ;
809 [label="x[0] <= 3.5\ngini = 0.153\nsamples = 12\nvalue = [11, 1]"] ;
793 -> 809 ;
810 [label="x[2] <= 51931.98\ngini = 0.444\nsamples = 3\nvalue = [2, 1]"] ;
809 -> 810 ;
811 [label="gini = 0.0\nsamples = 2\nvalue = [2, 0]"] ;
810 -> 811 ;
812 [label="gini = 0.0\nsamples = 1\nvalue = [0, 1]"] ;
810 -> 812 ;
813 [label="gini = 0.0\nsamples = 9\nvalue = [9, 0]"] ;
809 -> 813 ;
814 [label="x[3] <= 36517.436\ngini = 0.486\nsamples = 24\nvalue = [10, 14]"] ;
774 -> 814 ;
815 [label="x[2] <= 60482.5\ngini = 0.432\nsamples = 19\nvalue = [6, 13]"] ;
814 -> 815 ;
816 [label="x[0] <= 10.0\ngini = 0.496\nsamples = 11\nvalue = [5, 6]"] ;
815 -> 816 ;
817 [label="x[3] <= 32147.05\ngini = 0.278\nsamples = 6\nvalue = [1, 5]"] ;
816 -> 817 ;
818 [label="gini = 0.0\nsamples = 1\nvalue = [1, 0]"] ;
817 -> 818 ;
819 [label="gini = 0.0\nsamples = 5\nvalue = [0, 5]"] ;
817 -> 819 ;
820 [label="x[3] <= 32154.761\ngini = 0.32\nsamples = 5\nvalue = [4, 1]"] ;
816 -> 820 ;
821 [label="gini = 0.0\nsamples = 1\nvalue = [0, 1]"] ;
820 -> 821 ;
822 [label="gini = 0.0\nsamples = 4\nvalue = [4, 0]"] ;
820 -> 822 ;
823 [label="x[0] <= 4.5\ngini = 0.219\nsamples = 8\nvalue = [1, 7]"] ;
815 -> 823 ;
824 [label="x[2] <= 63614.26\ngini = 0.5\nsamples = 2\nvalue = [1, 1]"] ;
823 -> 824 ;
825 [label="gini = 0.0\nsamples = 1\nvalue = [1, 0]"] ;
824 -> 825 ;
826 [label="gini = 0.0\nsamples = 1\nvalue = [0, 1]"] ;
824 -> 826 ;
827 [label="gini = 0.0\nsamples = 6\nvalue = [0, 6]"] ;
823 -> 827 ;
828 [label="x[3] <= 41857.941\ngini = 0.32\nsamples = 5\nvalue = [4, 1]"] ;
814 -> 828 ;
829 [label="gini = 0.0\nsamples = 4\nvalue = [4, 0]"] ;
828 -> 829 ;
830 [label="gini = 0.0\nsamples = 1\nvalue = [0, 1]"] ;
828 -> 830 ;
831 [label="x[3] <= 43461.674\ngini = 0.497\nsamples = 300\nvalue = [162, 138]"] ;
773 -> 831 ;
832 [label="gini = 0.0\nsamples = 3\nvalue = [0, 3]"] ;
831 -> 832 ;
833 [label="x[3] <= 85537.238\ngini = 0.496\nsamples = 297\nvalue = [162, 135]"] ;
831 -> 833 ;
834 [label="x[0] <= 12.5\ngini = 0.497\nsamples = 294\nvalue = [159, 135]"] ;
833 -> 834 ;
835 [label="x[3] <= 60921.609\ngini = 0.493\nsamples = 249\nvalue = [139, 110]"] ;
834 -> 835 ;
836 [label="x[3] <= 54678.289\ngini = 0.5\nsamples = 112\nvalue = [55, 57]"] ;
835 -> 836 ;
837 [label="x[2] <= 61940.109\ngini = 0.495\nsamples = 67\nvalue = [37, 30]"] ;
836 -> 837 ;
838 [label="x[0] <= 3.5\ngini = 0.488\nsamples = 64\nvalue = [37, 27]"] ;
837 -> 838 ;
839 [label="x[2] <= 41291.039\ngini = 0.298\nsamples = 11\nvalue = [9, 2]"] ;
838 -> 839 ;
840 [label="gini = 0.0\nsamples = 6\nvalue = [6, 0]"] ;
839 -> 840 ;
841 [label="x[2] <= 56145.865\ngini = 0.48\nsamples = 5\nvalue = [3, 2]"] ;
839 -> 841 ;
842 [label="x[3] <= 51327.746\ngini = 0.444\nsamples = 3\nvalue = [1, 2]"] ;
841 -> 842 ;
843 [label="gini = 0.0\nsamples = 1\nvalue = [0, 1]"] ;
842 -> 843 ;
844 [label="x[2] <= 50581.74\ngini = 0.5\nsamples = 2\nvalue = [1, 1]"] ;
842 -> 844 ;
845 [label="gini = 0.0\nsamples = 1\nvalue = [1, 0]"] ;
844 -> 845 ;
846 [label="gini = 0.0\nsamples = 1\nvalue = [0, 1]"] ;
844 -> 846 ;
847 [label="gini = 0.0\nsamples = 2\nvalue = [2, 0]"] ;
841 -> 847 ;
848 [label="x[3] <= 53492.219\ngini = 0.498\nsamples = 53\nvalue = [28, 25]"] ;
838 -> 848 ;
849 [label="x[3] <= 49956.551\ngini = 0.5\nsamples = 47\nvalue = [23, 24]"] ;
848 -> 849 ;
850 [label="x[0] <= 11.5\ngini = 0.48\nsamples = 30\nvalue = [18, 12]"] ;
849 -> 850 ;
851 [label="x[3] <= 43997.135\ngini = 0.459\nsamples = 28\nvalue = [18, 10]"] ;
850 -> 851 ;
852 [label="gini = 0.0\nsamples = 4\nvalue = [4, 0]"] ;
851 -> 852 ;
853 [label="x[3] <= 45469.975\ngini = 0.486\nsamples = 24\nvalue = [14, 10]"] ;
851 -> 853 ;
854 [label="x[2] <= 46935.01\ngini = 0.375\nsamples = 8\nvalue = [2, 6]"] ;
853 -> 854 ;
855 [label="gini = 0.0\nsamples = 2\nvalue = [2, 0]"] ;
854 -> 855 ;
856 [label="gini = 0.0\nsamples = 6\nvalue = [0, 6]"] ;
854 -> 856 ;
857 [label="x[2] <= 37238.221\ngini = 0.375\nsamples = 16\nvalue = [12, 4]"] ;
853 -> 857 ;
858 [label="x[3] <= 48087.865\ngini = 0.48\nsamples = 5\nvalue = [2, 3]"] ;
857 -> 858 ;
859 [label="gini = 0.0\nsamples = 2\nvalue = [2, 0]"] ;
858 -> 859 ;
860 [label="gini = 0.0\nsamples = 3\nvalue = [0, 3]"] ;
858 -> 860 ;
861 [label="x[0] <= 10.5\ngini = 0.165\nsamples = 11\nvalue = [10, 1]"] ;
857 -> 861 ;
862 [label="gini = 0.0\nsamples = 8\nvalue = [8, 0]"] ;
861 -> 862 ;
863 [label="x[2] <= 49041.119\ngini = 0.444\nsamples = 3\nvalue = [2, 1]"] ;
861 -> 863 ;
864 [label="gini = 0.0\nsamples = 2\nvalue = [2, 0]"] ;
863 -> 864 ;
865 [label="gini = 0.0\nsamples = 1\nvalue = [0, 1]"] ;
863 -> 865 ;
866 [label="gini = 0.0\nsamples = 2\nvalue = [0, 2]"] ;
850 -> 866 ;
867 [label="x[2] <= 39342.566\ngini = 0.415\nsamples = 17\nvalue = [5, 12]"] ;
849 -> 867 ;
868 [label="gini = 0.0\nsamples = 4\nvalue = [0, 4]"] ;
867 -> 868 ;
869 [label="x[2] <= 41768.58\ngini = 0.473\nsamples = 13\nvalue = [5, 8]"] ;
867 -> 869 ;
870 [label="gini = 0.0\nsamples = 2\nvalue = [2, 0]"] ;
869 -> 870 ;
871 [label="x[2] <= 47856.064\ngini = 0.397\nsamples = 11\nvalue = [3, 8]"] ;
869 -> 871 ;
872 [label="gini = 0.0\nsamples = 4\nvalue = [0, 4]"] ;
871 -> 872 ;
873 [label="x[2] <= 49201.135\ngini = 0.49\nsamples = 7\nvalue = [3, 4]"] ;
871 -> 873 ;
874 [label="gini = 0.0\nsamples = 1\nvalue = [1, 0]"] ;
873 -> 874 ;
875 [label="x[0] <= 7.5\ngini = 0.444\nsamples = 6\nvalue = [2, 4]"] ;
873 -> 875 ;
876 [label="x[3] <= 50429.906\ngini = 0.444\nsamples = 3\nvalue = [2, 1]"] ;
875 -> 876 ;
877 [label="gini = 0.0\nsamples = 1\nvalue = [0, 1]"] ;
876 -> 877 ;
878 [label="gini = 0.0\nsamples = 2\nvalue = [2, 0]"] ;
876 -> 878 ;
879 [label="gini = 0.0\nsamples = 3\nvalue = [0, 3]"] ;
875 -> 879 ;
880 [label="x[1] <= 0.5\ngini = 0.278\nsamples = 6\nvalue = [5, 1]"] ;
848 -> 880 ;
881 [label="gini = 0.0\nsamples = 4\nvalue = [4, 0]"] ;
880 -> 881 ;
882 [label="x[2] <= 54647.705\ngini = 0.5\nsamples = 2\nvalue = [1, 1]"] ;
880 -> 882 ;
883 [label="gini = 0.0\nsamples = 1\nvalue = [0, 1]"] ;
882 -> 883 ;
884 [label="gini = 0.0\nsamples = 1\nvalue = [1, 0]"] ;
882 -> 884 ;
885 [label="gini = 0.0\nsamples = 3\nvalue = [0, 3]"] ;
837 -> 885 ;
886 [label="x[2] <= 51523.51\ngini = 0.48\nsamples = 45\nvalue = [18, 27]"] ;
836 -> 886 ;
887 [label="x[3] <= 58447.83\ngini = 0.428\nsamples = 29\nvalue = [9, 20]"] ;
886 -> 887 ;
888 [label="x[0] <= 5.5\ngini = 0.266\nsamples = 19\nvalue = [3, 16]"] ;
887 -> 888 ;
889 [label="x[2] <= 37562.879\ngini = 0.397\nsamples = 11\nvalue = [3, 8]"] ;
888 -> 889 ;
890 [label="x[2] <= 36395.98\ngini = 0.5\nsamples = 4\nvalue = [2, 2]"] ;
889 -> 890 ;
891 [label="gini = 0.0\nsamples = 2\nvalue = [0, 2]"] ;
890 -> 891 ;
892 [label="gini = 0.0\nsamples = 2\nvalue = [2, 0]"] ;
890 -> 892 ;
893 [label="x[2] <= 46226.625\ngini = 0.245\nsamples = 7\nvalue = [1, 6]"] ;
889 -> 893 ;
894 [label="gini = 0.0\nsamples = 5\nvalue = [0, 5]"] ;
893 -> 894 ;
895 [label="x[3] <= 57529.0\ngini = 0.5\nsamples = 2\nvalue = [1, 1]"] ;
893 -> 895 ;
896 [label="gini = 0.0\nsamples = 1\nvalue = [0, 1]"] ;
895 -> 896 ;
897 [label="gini = 0.0\nsamples = 1\nvalue = [1, 0]"] ;
895 -> 897 ;
898 [label="gini = 0.0\nsamples = 8\nvalue = [0, 8]"] ;
888 -> 898 ;
899 [label="x[3] <= 59055.52\ngini = 0.48\nsamples = 10\nvalue = [6, 4]"] ;
887 -> 899 ;
900 [label="gini = 0.0\nsamples = 3\nvalue = [3, 0]"] ;
899 -> 900 ;
901 [label="x[3] <= 60112.346\ngini = 0.49\nsamples = 7\nvalue = [3, 4]"] ;
899 -> 901 ;
902 [label="x[0] <= 9.5\ngini = 0.32\nsamples = 5\nvalue = [1, 4]"] ;
901 -> 902 ;
903 [label="gini = 0.0\nsamples = 4\nvalue = [0, 4]"] ;
902 -> 903 ;
904 [label="gini = 0.0\nsamples = 1\nvalue = [1, 0]"] ;
902 -> 904 ;
905 [label="gini = 0.0\nsamples = 2\nvalue = [2, 0]"] ;
901 -> 905 ;
906 [label="x[3] <= 59458.791\ngini = 0.492\nsamples = 16\nvalue = [9, 7]"] ;
886 -> 906 ;
907 [label="x[3] <= 55301.02\ngini = 0.375\nsamples = 12\nvalue = [9, 3]"] ;
906 -> 907 ;
908 [label="gini = 0.0\nsamples = 1\nvalue = [0, 1]"] ;
907 -> 908 ;
909 [label="x[3] <= 57915.941\ngini = 0.298\nsamples = 11\nvalue = [9, 2]"] ;
907 -> 909 ;
910 [label="gini = 0.0\nsamples = 6\nvalue = [6, 0]"] ;
909 -> 910 ;
911 [label="x[1] <= 0.5\ngini = 0.48\nsamples = 5\nvalue = [3, 2]"] ;
909 -> 911 ;
912 [label="x[3] <= 58601.545\ngini = 0.444\nsamples = 3\nvalue = [1, 2]"] ;
911 -> 912 ;
913 [label="gini = 0.0\nsamples = 2\nvalue = [0, 2]"] ;
912 -> 913 ;
914 [label="gini = 0.0\nsamples = 1\nvalue = [1, 0]"] ;
912 -> 914 ;
915 [label="gini = 0.0\nsamples = 2\nvalue = [2, 0]"] ;
911 -> 915 ;
916 [label="gini = 0.0\nsamples = 4\nvalue = [0, 4]"] ;
906 -> 916 ;
917 [label="x[1] <= 0.5\ngini = 0.474\nsamples = 137\nvalue = [84, 53]"] ;
835 -> 917 ;
918 [label="x[3] <= 65430.365\ngini = 0.5\nsamples = 60\nvalue = [30, 30]"] ;
917 -> 918 ;
919 [label="x[2] <= 60268.4\ngini = 0.219\nsamples = 8\nvalue = [7, 1]"] ;
918 -> 919 ;
920 [label="gini = 0.0\nsamples = 7\nvalue = [7, 0]"] ;
919 -> 920 ;
921 [label="gini = 0.0\nsamples = 1\nvalue = [0, 1]"] ;
919 -> 921 ;
922 [label="x[3] <= 68435.363\ngini = 0.493\nsamples = 52\nvalue = [23, 29]"] ;
918 -> 922 ;
923 [label="gini = 0.0\nsamples = 7\nvalue = [0, 7]"] ;
922 -> 923 ;
924 [label="x[0] <= 11.5\ngini = 0.5\nsamples = 45\nvalue = [23, 22]"] ;
922 -> 924 ;
925 [label="x[3] <= 69949.434\ngini = 0.497\nsamples = 41\nvalue = [19, 22]"] ;
924 -> 925 ;
926 [label="x[0] <= 4.0\ngini = 0.32\nsamples = 5\nvalue = [4, 1]"] ;
925 -> 926 ;
927 [label="x[2] <= 46562.434\ngini = 0.5\nsamples = 2\nvalue = [1, 1]"] ;
926 -> 927 ;
928 [label="gini = 0.0\nsamples = 1\nvalue = [0, 1]"] ;
927 -> 928 ;
929 [label="gini = 0.0\nsamples = 1\nvalue = [1, 0]"] ;
927 -> 929 ;
930 [label="gini = 0.0\nsamples = 3\nvalue = [3, 0]"] ;
926 -> 930 ;
931 [label="x[2] <= 32402.94\ngini = 0.486\nsamples = 36\nvalue = [15, 21]"] ;
925 -> 931 ;
932 [label="gini = 0.0\nsamples = 1\nvalue = [1, 0]"] ;
931 -> 932 ;
933 [label="x[2] <= 33745.666\ngini = 0.48\nsamples = 35\nvalue = [14, 21]"] ;
931 -> 933 ;
934 [label="gini = 0.0\nsamples = 3\nvalue = [0, 3]"] ;
933 -> 934 ;
935 [label="x[2] <= 35636.51\ngini = 0.492\nsamples = 32\nvalue = [14, 18]"] ;
933 -> 935 ;
936 [label="gini = 0.0\nsamples = 2\nvalue = [2, 0]"] ;
935 -> 936 ;
937 [label="x[2] <= 37224.986\ngini = 0.48\nsamples = 30\nvalue = [12, 18]"] ;
935 -> 937 ;
938 [label="gini = 0.0\nsamples = 4\nvalue = [0, 4]"] ;
937 -> 938 ;
939 [label="x[2] <= 41217.705\ngini = 0.497\nsamples = 26\nvalue = [12, 14]"] ;
937 -> 939 ;
940 [label="x[0] <= 4.5\ngini = 0.32\nsamples = 5\nvalue = [4, 1]"] ;
939 -> 940 ;
941 [label="gini = 0.0\nsamples = 3\nvalue = [3, 0]"] ;
940 -> 941 ;
942 [label="x[3] <= 77294.352\ngini = 0.5\nsamples = 2\nvalue = [1, 1]"] ;
940 -> 942 ;
943 [label="gini = 0.0\nsamples = 1\nvalue = [1, 0]"] ;
942 -> 943 ;
944 [label="gini = 0.0\nsamples = 1\nvalue = [0, 1]"] ;
942 -> 944 ;
945 [label="x[3] <= 83812.945\ngini = 0.472\nsamples = 21\nvalue = [8, 13]"] ;
939 -> 945 ;
946 [label="x[2] <= 46622.641\ngini = 0.444\nsamples = 18\nvalue = [6, 12]"] ;
945 -> 946 ;
947 [label="gini = 0.0\nsamples = 4\nvalue = [0, 4]"] ;
946 -> 947 ;
948 [label="x[0] <= 9.5\ngini = 0.49\nsamples = 14\nvalue = [6, 8]"] ;
946 -> 948 ;
949 [label="x[2] <= 59235.98\ngini = 0.496\nsamples = 11\nvalue = [6, 5]"] ;
948 -> 949 ;
950 [label="x[3] <= 72727.008\ngini = 0.444\nsamples = 9\nvalue = [6, 3]"] ;
949 -> 950 ;
951 [label="gini = 0.0\nsamples = 3\nvalue = [3, 0]"] ;
950 -> 951 ;
952 [label="x[3] <= 76896.66\ngini = 0.5\nsamples = 6\nvalue = [3, 3]"] ;
950 -> 952 ;
953 [label="gini = 0.0\nsamples = 2\nvalue = [0, 2]"] ;
952 -> 953 ;
954 [label="x[2] <= 52189.146\ngini = 0.375\nsamples = 4\nvalue = [3, 1]"] ;
952 -> 954 ;
955 [label="gini = 0.0\nsamples = 3\nvalue = [3, 0]"] ;
954 -> 955 ;
956 [label="gini = 0.0\nsamples = 1\nvalue = [0, 1]"] ;
954 -> 956 ;
957 [label="gini = 0.0\nsamples = 2\nvalue = [0, 2]"] ;
949 -> 957 ;
958 [label="gini = 0.0\nsamples = 3\nvalue = [0, 3]"] ;
948 -> 958 ;
959 [label="x[3] <= 85224.285\ngini = 0.444\nsamples = 3\nvalue = [2, 1]"] ;
945 -> 959 ;
960 [label="gini = 0.0\nsamples = 2\nvalue = [2, 0]"] ;
959 -> 960 ;
961 [label="gini = 0.0\nsamples = 1\nvalue = [0, 1]"] ;
959 -> 961 ;
962 [label="gini = 0.0\nsamples = 4\nvalue = [4, 0]"] ;
924 -> 962 ;
963 [label="x[2] <= 40375.648\ngini = 0.419\nsamples = 77\nvalue = [54, 23]"] ;
917 -> 963 ;
964 [label="x[3] <= 71221.391\ngini = 0.494\nsamples = 27\nvalue = [15, 12]"] ;
963 -> 964 ;
965 [label="gini = 0.0\nsamples = 11\nvalue = [11, 0]"] ;
964 -> 965 ;
966 [label="x[0] <= 4.0\ngini = 0.375\nsamples = 16\nvalue = [4, 12]"] ;
964 -> 966 ;
967 [label="x[2] <= 35483.314\ngini = 0.375\nsamples = 4\nvalue = [3, 1]"] ;
966 -> 967 ;
968 [label="gini = 0.0\nsamples = 3\nvalue = [3, 0]"] ;
967 -> 968 ;
969 [label="gini = 0.0\nsamples = 1\nvalue = [0, 1]"] ;
967 -> 969 ;
970 [label="x[0] <= 11.5\ngini = 0.153\nsamples = 12\nvalue = [1, 11]"] ;
966 -> 970 ;
971 [label="gini = 0.0\nsamples = 11\nvalue = [0, 11]"] ;
970 -> 971 ;
972 [label="gini = 0.0\nsamples = 1\nvalue = [1, 0]"] ;
970 -> 972 ;
973 [label="x[2] <= 64144.906\ngini = 0.343\nsamples = 50\nvalue = [39, 11]"] ;
963 -> 973 ;
974 [label="x[3] <= 72171.25\ngini = 0.325\nsamples = 49\nvalue = [39, 10]"] ;
973 -> 974 ;
975 [label="x[2] <= 47625.289\ngini = 0.403\nsamples = 25\nvalue = [18, 7]"] ;
974 -> 975 ;
976 [label="gini = 0.0\nsamples = 9\nvalue = [9, 0]"] ;
975 -> 976 ;
977 [label="x[3] <= 72030.594\ngini = 0.492\nsamples = 16\nvalue = [9, 7]"] ;
975 -> 977 ;
978 [label="x[3] <= 70997.27\ngini = 0.48\nsamples = 15\nvalue = [9, 6]"] ;
977 -> 978 ;
979 [label="x[0] <= 4.5\ngini = 0.5\nsamples = 12\nvalue = [6, 6]"] ;
978 -> 979 ;
980 [label="gini = 0.0\nsamples = 2\nvalue = [0, 2]"] ;
979 -> 980 ;
981 [label="x[3] <= 66904.832\ngini = 0.48\nsamples = 10\nvalue = [6, 4]"] ;
979 -> 981 ;
982 [label="x[3] <= 62714.139\ngini = 0.278\nsamples = 6\nvalue = [5, 1]"] ;
981 -> 982 ;
983 [label="x[2] <= 60565.43\ngini = 0.5\nsamples = 2\nvalue = [1, 1]"] ;
982 -> 983 ;
984 [label="gini = 0.0\nsamples = 1\nvalue = [0, 1]"] ;
983 -> 984 ;
985 [label="gini = 0.0\nsamples = 1\nvalue = [1, 0]"] ;
983 -> 985 ;
986 [label="gini = 0.0\nsamples = 4\nvalue = [4, 0]"] ;
982 -> 986 ;
987 [label="x[2] <= 60615.535\ngini = 0.375\nsamples = 4\nvalue = [1, 3]"] ;
981 -> 987 ;
988 [label="gini = 0.0\nsamples = 3\nvalue = [0, 3]"] ;
987 -> 988 ;
989 [label="gini = 0.0\nsamples = 1\nvalue = [1, 0]"] ;
987 -> 989 ;
990 [label="gini = 0.0\nsamples = 3\nvalue = [3, 0]"] ;
978 -> 990 ;
991 [label="gini = 0.0\nsamples = 1\nvalue = [0, 1]"] ;
977 -> 991 ;
992 [label="x[2] <= 43398.682\ngini = 0.219\nsamples = 24\nvalue = [21, 3]"] ;
974 -> 992 ;
993 [label="x[2] <= 41856.279\ngini = 0.444\nsamples = 3\nvalue = [1, 2]"] ;
992 -> 993 ;
994 [label="gini = 0.0\nsamples = 1\nvalue = [1, 0]"] ;
993 -> 994 ;
995 [label="gini = 0.0\nsamples = 2\nvalue = [0, 2]"] ;
993 -> 995 ;
996 [label="x[2] <= 49346.936\ngini = 0.091\nsamples = 21\nvalue = [20, 1]"] ;
992 -> 996 ;
997 [label="x[2] <= 47320.82\ngini = 0.375\nsamples = 4\nvalue = [3, 1]"] ;
996 -> 997 ;
998 [label="gini = 0.0\nsamples = 3\nvalue = [3, 0]"] ;
997 -> 998 ;
999 [label="gini = 0.0\nsamples = 1\nvalue = [0, 1]"] ;
997 -> 999 ;
1000 [label="gini = 0.0\nsamples = 17\nvalue = [17, 0]"] ;
996 -> 1000 ;
1001 [label="gini = 0.0\nsamples = 1\nvalue = [0, 1]"] ;
973 -> 1001 ;
1002 [label="x[3] <= 57037.766\ngini = 0.494\nsamples = 45\nvalue = [20, 25]"] ;
834 -> 1002 ;
1003 [label="x[2] <= 35497.041\ngini = 0.397\nsamples = 11\nvalue = [8, 3]"] ;
1002 -> 1003 ;
1004 [label="gini = 0.0\nsamples = 2\nvalue = [0, 2]"] ;
1003 -> 1004 ;
1005 [label="x[3] <= 44966.203\ngini = 0.198\nsamples = 9\nvalue = [8, 1]"] ;
1003 -> 1005 ;
1006 [label="gini = 0.0\nsamples = 1\nvalue = [0, 1]"] ;
1005 -> 1006 ;
1007 [label="gini = 0.0\nsamples = 8\nvalue = [8, 0]"] ;
1005 -> 1007 ;
1008 [label="x[0] <= 13.5\ngini = 0.457\nsamples = 34\nvalue = [12, 22]"] ;
1002 -> 1008 ;
1009 [label="x[2] <= 49480.865\ngini = 0.388\nsamples = 19\nvalue = [5, 14]"] ;
1008 -> 1009 ;
1010 [label="gini = 0.0\nsamples = 8\nvalue = [0, 8]"] ;
1009 -> 1010 ;
1011 [label="x[2] <= 57896.766\ngini = 0.496\nsamples = 11\nvalue = [5, 6]"] ;
1009 -> 1011 ;
1012 [label="x[3] <= 74130.645\ngini = 0.469\nsamples = 8\nvalue = [5, 3]"] ;
1011 -> 1012 ;
1013 [label="x[1] <= 0.5\ngini = 0.32\nsamples = 5\nvalue = [4, 1]"] ;
1012 -> 1013 ;
1014 [label="gini = 0.0\nsamples = 1\nvalue = [0, 1]"] ;
1013 -> 1014 ;
1015 [label="gini = 0.0\nsamples = 4\nvalue = [4, 0]"] ;
1013 -> 1015 ;
1016 [label="x[3] <= 80833.051\ngini = 0.444\nsamples = 3\nvalue = [1, 2]"] ;
1012 -> 1016 ;
1017 [label="gini = 0.0\nsamples = 2\nvalue = [0, 2]"] ;
1016 -> 1017 ;
1018 [label="gini = 0.0\nsamples = 1\nvalue = [1, 0]"] ;
1016 -> 1018 ;
1019 [label="gini = 0.0\nsamples = 3\nvalue = [0, 3]"] ;
1011 -> 1019 ;
1020 [label="x[2] <= 36425.205\ngini = 0.498\nsamples = 15\nvalue = [7, 8]"] ;
1008 -> 1020 ;
1021 [label="gini = 0.0\nsamples = 2\nvalue = [2, 0]"] ;
1020 -> 1021 ;
1022 [label="x[1] <= 0.5\ngini = 0.473\nsamples = 13\nvalue = [5, 8]"] ;
1020 -> 1022 ;
1023 [label="x[2] <= 40365.121\ngini = 0.278\nsamples = 6\nvalue = [1, 5]"] ;
1022 -> 1023 ;
1024 [label="x[2] <= 37957.266\ngini = 0.5\nsamples = 2\nvalue = [1, 1]"] ;
1023 -> 1024 ;
1025 [label="gini = 0.0\nsamples = 1\nvalue = [0, 1]"] ;
1024 -> 1025 ;
1026 [label="gini = 0.0\nsamples = 1\nvalue = [1, 0]"] ;
1024 -> 1026 ;
1027 [label="gini = 0.0\nsamples = 4\nvalue = [0, 4]"] ;
1023 -> 1027 ;
1028 [label="x[2] <= 58598.016\ngini = 0.49\nsamples = 7\nvalue = [4, 3]"] ;
1022 -> 1028 ;
1029 [label="x[3] <= 74947.66\ngini = 0.375\nsamples = 4\nvalue = [1, 3]"] ;
1028 -> 1029 ;
1030 [label="gini = 0.0\nsamples = 3\nvalue = [0, 3]"] ;
1029 -> 1030 ;
1031 [label="gini = 0.0\nsamples = 1\nvalue = [1, 0]"] ;
1029 -> 1031 ;
1032 [label="gini = 0.0\nsamples = 3\nvalue = [3, 0]"] ;
1028 -> 1032 ;
1033 [label="gini = 0.0\nsamples = 3\nvalue = [3, 0]"] ;
833 -> 1033 ;
1034 [label="gini = 0.0\nsamples = 6\nvalue = [6, 0]"] ;
772 -> 1034 ;
1035 [label="gini = 0.0\nsamples = 3\nvalue = [0, 3]"] ;
771 -> 1035 ;
1036 [label="gini = 0.0\nsamples = 5\nvalue = [5, 0]"] ;
770 -> 1036 ;
1037 [label="x[0] <= 8.5\ngini = 0.32\nsamples = 10\nvalue = [2, 8]"] ;
769 -> 1037 ;
1038 [label="x[0] <= 6.5\ngini = 0.444\nsamples = 6\nvalue = [2, 4]"] ;
1037 -> 1038 ;
1039 [label="gini = 0.0\nsamples = 3\nvalue = [0, 3]"] ;
1038 -> 1039 ;
1040 [label="x[2] <= 36241.914\ngini = 0.444\nsamples = 3\nvalue = [2, 1]"] ;
1038 -> 1040 ;
1041 [label="gini = 0.0\nsamples = 1\nvalue = [0, 1]"] ;
1040 -> 1041 ;
1042 [label="gini = 0.0\nsamples = 2\nvalue = [2, 0]"] ;
1040 -> 1042 ;
1043 [label="gini = 0.0\nsamples = 4\nvalue = [0, 4]"] ;
1037 -> 1043 ;
1044 [label="x[3] <= 85982.867\ngini = 0.34\nsamples = 23\nvalue = [5, 18]"] ;
768 -> 1044 ;
1045 [label="x[0] <= 12.5\ngini = 0.255\nsamples = 20\nvalue = [3, 17]"] ;
1044 -> 1045 ;
1046 [label="x[3] <= 44616.5\ngini = 0.117\nsamples = 16\nvalue = [1, 15]"] ;
1045 -> 1046 ;
1047 [label="x[1] <= 0.5\ngini = 0.5\nsamples = 2\nvalue = [1, 1]"] ;
1046 -> 1047 ;
1048 [label="gini = 0.0\nsamples = 1\nvalue = [1, 0]"] ;
1047 -> 1048 ;
1049 [label="gini = 0.0\nsamples = 1\nvalue = [0, 1]"] ;
1047 -> 1049 ;
1050 [label="gini = 0.0\nsamples = 14\nvalue = [0, 14]"] ;
1046 -> 1050 ;
1051 [label="x[3] <= 59061.801\ngini = 0.5\nsamples = 4\nvalue = [2, 2]"] ;
1045 -> 1051 ;
1052 [label="gini = 0.0\nsamples = 2\nvalue = [0, 2]"] ;
1051 -> 1052 ;
1053 [label="gini = 0.0\nsamples = 2\nvalue = [2, 0]"] ;
1051 -> 1053 ;
1054 [label="x[2] <= 66717.543\ngini = 0.444\nsamples = 3\nvalue = [2, 1]"] ;
1044 -> 1054 ;
1055 [label="gini = 0.0\nsamples = 2\nvalue = [2, 0]"] ;
1054 -> 1055 ;
1056 [label="gini = 0.0\nsamples = 1\nvalue = [0, 1]"] ;
1054 -> 1056 ;
1057 [label="x[3] <= 81470.16\ngini = 0.252\nsamples = 27\nvalue = [23, 4]"] ;
767 -> 1057 ;
1058 [label="x[2] <= 68165.723\ngini = 0.204\nsamples = 26\nvalue = [23, 3]"] ;
1057 -> 1058 ;
1059 [label="x[3] <= 57732.363\ngini = 0.375\nsamples = 8\nvalue = [6, 2]"] ;
1058 -> 1059 ;
1060 [label="x[0] <= 12.5\ngini = 0.444\nsamples = 3\nvalue = [1, 2]"] ;
1059 -> 1060 ;
1061 [label="gini = 0.0\nsamples = 2\nvalue = [0, 2]"] ;
1060 -> 1061 ;
1062 [label="gini = 0.0\nsamples = 1\nvalue = [1, 0]"] ;
1060 -> 1062 ;
1063 [label="gini = 0.0\nsamples = 5\nvalue = [5, 0]"] ;
1059 -> 1063 ;
1064 [label="x[2] <= 69195.609\ngini = 0.105\nsamples = 18\nvalue = [17, 1]"] ;
1058 -> 1064 ;
1065 [label="gini = 0.0\nsamples = 15\nvalue = [15, 0]"] ;
1064 -> 1065 ;
1066 [label="x[2] <= 69227.469\ngini = 0.444\nsamples = 3\nvalue = [2, 1]"] ;
1064 -> 1066 ;
1067 [label="gini = 0.0\nsamples = 1\nvalue = [0, 1]"] ;
1066 -> 1067 ;
1068 [label="gini = 0.0\nsamples = 2\nvalue = [2, 0]"] ;
1066 -> 1068 ;
1069 [label="gini = 0.0\nsamples = 1\nvalue = [0, 1]"] ;
1057 -> 1069 ;
1070 [label="x[2] <= 89569.355\ngini = 0.5\nsamples = 311\nvalue = [154, 157]"] ;
766 -> 1070 ;
1071 [label="x[3] <= 32798.7\ngini = 0.495\nsamples = 234\nvalue = [105, 129]"] ;
1070 -> 1071 ;
1072 [label="x[0] <= 5.5\ngini = 0.32\nsamples = 15\nvalue = [3, 12]"] ;
1071 -> 1072 ;
1073 [label="gini = 0.0\nsamples = 6\nvalue = [0, 6]"] ;
1072 -> 1073 ;
1074 [label="x[0] <= 10.5\ngini = 0.444\nsamples = 9\nvalue = [3, 6]"] ;
1072 -> 1074 ;
1075 [label="x[2] <= 85395.391\ngini = 0.48\nsamples = 5\nvalue = [3, 2]"] ;
1074 -> 1075 ;
1076 [label="gini = 0.0\nsamples = 3\nvalue = [3, 0]"] ;
1075 -> 1076 ;
1077 [label="gini = 0.0\nsamples = 2\nvalue = [0, 2]"] ;
1075 -> 1077 ;
1078 [label="gini = 0.0\nsamples = 4\nvalue = [0, 4]"] ;
1074 -> 1078 ;
1079 [label="x[2] <= 70103.711\ngini = 0.498\nsamples = 219\nvalue = [102, 117]"] ;
1071 -> 1079 ;
1080 [label="x[3] <= 59437.145\ngini = 0.298\nsamples = 11\nvalue = [2, 9]"] ;
1079 -> 1080 ;
1081 [label="gini = 0.0\nsamples = 6\nvalue = [0, 6]"] ;
1080 -> 1081 ;
1082 [label="x[3] <= 62899.135\ngini = 0.48\nsamples = 5\nvalue = [2, 3]"] ;
1080 -> 1082 ;
1083 [label="gini = 0.0\nsamples = 2\nvalue = [2, 0]"] ;
1082 -> 1083 ;
1084 [label="gini = 0.0\nsamples = 3\nvalue = [0, 3]"] ;
1082 -> 1084 ;
1085 [label="x[2] <= 70364.445\ngini = 0.499\nsamples = 208\nvalue = [100, 108]"] ;
1079 -> 1085 ;
1086 [label="gini = 0.0\nsamples = 6\nvalue = [6, 0]"] ;
1085 -> 1086 ;
1087 [label="x[3] <= 36164.564\ngini = 0.498\nsamples = 202\nvalue = [94, 108]"] ;
1085 -> 1087 ;
1088 [label="x[2] <= 75675.25\ngini = 0.346\nsamples = 9\nvalue = [7, 2]"] ;
1087 -> 1088 ;
1089 [label="gini = 0.0\nsamples = 2\nvalue = [0, 2]"] ;
1088 -> 1089 ;
1090 [label="gini = 0.0\nsamples = 7\nvalue = [7, 0]"] ;
1088 -> 1090 ;
1091 [label="x[3] <= 39359.721\ngini = 0.495\nsamples = 193\nvalue = [87, 106]"] ;
1087 -> 1091 ;
1092 [label="x[2] <= 78723.285\ngini = 0.18\nsamples = 10\nvalue = [1, 9]"] ;
1091 -> 1092 ;
1093 [label="x[3] <= 37076.016\ngini = 0.5\nsamples = 2\nvalue = [1, 1]"] ;
1092 -> 1093 ;
1094 [label="gini = 0.0\nsamples = 1\nvalue = [0, 1]"] ;
1093 -> 1094 ;
1095 [label="gini = 0.0\nsamples = 1\nvalue = [1, 0]"] ;
1093 -> 1095 ;
1096 [label="gini = 0.0\nsamples = 8\nvalue = [0, 8]"] ;
1092 -> 1096 ;
1097 [label="x[3] <= 86977.105\ngini = 0.498\nsamples = 183\nvalue = [86, 97]"] ;
1091 -> 1097 ;
1098 [label="x[3] <= 85471.828\ngini = 0.499\nsamples = 179\nvalue = [86, 93]"] ;
1097 -> 1098 ;
1099 [label="x[3] <= 55947.025\ngini = 0.497\nsamples = 172\nvalue = [79, 93]"] ;
1098 -> 1099 ;
1100 [label="x[2] <= 70756.086\ngini = 0.495\nsamples = 58\nvalue = [32, 26]"] ;
1099 -> 1100 ;
1101 [label="gini = 0.0\nsamples = 2\nvalue = [0, 2]"] ;
1100 -> 1101 ;
1102 [label="x[2] <= 71152.805\ngini = 0.49\nsamples = 56\nvalue = [32, 24]"] ;
1100 -> 1102 ;
1103 [label="gini = 0.0\nsamples = 3\nvalue = [3, 0]"] ;
1102 -> 1103 ;
1104 [label="x[0] <= 13.5\ngini = 0.496\nsamples = 53\nvalue = [29, 24]"] ;
1102 -> 1104 ;
1105 [label="x[0] <= 6.5\ngini = 0.487\nsamples = 50\nvalue = [29, 21]"] ;
1104 -> 1105 ;
1106 [label="x[3] <= 55518.365\ngini = 0.497\nsamples = 26\nvalue = [12, 14]"] ;
1105 -> 1106 ;
1107 [label="x[2] <= 75542.988\ngini = 0.486\nsamples = 24\nvalue = [10, 14]"] ;
1106 -> 1107 ;
1108 [label="x[3] <= 41499.674\ngini = 0.278\nsamples = 6\nvalue = [1, 5]"] ;
1107 -> 1108 ;
1109 [label="x[0] <= 5.5\ngini = 0.5\nsamples = 2\nvalue = [1, 1]"] ;
1108 -> 1109 ;
1110 [label="gini = 0.0\nsamples = 1\nvalue = [0, 1]"] ;
1109 -> 1110 ;
1111 [label="gini = 0.0\nsamples = 1\nvalue = [1, 0]"] ;
1109 -> 1111 ;
1112 [label="gini = 0.0\nsamples = 4\nvalue = [0, 4]"] ;
1108 -> 1112 ;
1113 [label="x[2] <= 81648.207\ngini = 0.5\nsamples = 18\nvalue = [9, 9]"] ;
1107 -> 1113 ;
1114 [label="x[3] <= 44639.334\ngini = 0.444\nsamples = 9\nvalue = [6, 3]"] ;
1113 -> 1114 ;
1115 [label="gini = 0.0\nsamples = 1\nvalue = [0, 1]"] ;
1114 -> 1115 ;
1116 [label="x[2] <= 81019.965\ngini = 0.375\nsamples = 8\nvalue = [6, 2]"] ;
1114 -> 1116 ;
1117 [label="x[2] <= 80217.938\ngini = 0.444\nsamples = 6\nvalue = [4, 2]"] ;
1116 -> 1117 ;
1118 [label="x[2] <= 77586.805\ngini = 0.32\nsamples = 5\nvalue = [4, 1]"] ;
1117 -> 1118 ;
1119 [label="x[2] <= 76196.398\ngini = 0.5\nsamples = 2\nvalue = [1, 1]"] ;
1118 -> 1119 ;
1120 [label="gini = 0.0\nsamples = 1\nvalue = [1, 0]"] ;
1119 -> 1120 ;
1121 [label="gini = 0.0\nsamples = 1\nvalue = [0, 1]"] ;
1119 -> 1121 ;
1122 [label="gini = 0.0\nsamples = 3\nvalue = [3, 0]"] ;
1118 -> 1122 ;
1123 [label="gini = 0.0\nsamples = 1\nvalue = [0, 1]"] ;
1117 -> 1123 ;
1124 [label="gini = 0.0\nsamples = 2\nvalue = [2, 0]"] ;
1116 -> 1124 ;
1125 [label="x[0] <= 5.5\ngini = 0.444\nsamples = 9\nvalue = [3, 6]"] ;
1113 -> 1125 ;
1126 [label="x[0] <= 3.5\ngini = 0.5\nsamples = 6\nvalue = [3, 3]"] ;
1125 -> 1126 ;
1127 [label="gini = 0.0\nsamples = 2\nvalue = [0, 2]"] ;
1126 -> 1127 ;
1128 [label="x[3] <= 40966.541\ngini = 0.375\nsamples = 4\nvalue = [3, 1]"] ;
1126 -> 1128 ;
1129 [label="gini = 0.0\nsamples = 2\nvalue = [2, 0]"] ;
1128 -> 1129 ;
1130 [label="x[2] <= 85941.848\ngini = 0.5\nsamples = 2\nvalue = [1, 1]"] ;
1128 -> 1130 ;
1131 [label="gini = 0.0\nsamples = 1\nvalue = [0, 1]"] ;
1130 -> 1131 ;
1132 [label="gini = 0.0\nsamples = 1\nvalue = [1, 0]"] ;
1130 -> 1132 ;
1133 [label="gini = 0.0\nsamples = 3\nvalue = [0, 3]"] ;
1125 -> 1133 ;
1134 [label="gini = 0.0\nsamples = 2\nvalue = [2, 0]"] ;
1106 -> 1134 ;
1135 [label="x[1] <= 0.5\ngini = 0.413\nsamples = 24\nvalue = [17, 7]"] ;
1105 -> 1135 ;
1136 [label="x[0] <= 10.5\ngini = 0.475\nsamples = 18\nvalue = [11, 7]"] ;
1135 -> 1136 ;
1137 [label="x[3] <= 51343.084\ngini = 0.32\nsamples = 10\nvalue = [8, 2]"] ;
1136 -> 1137 ;
1138 [label="x[2] <= 81959.922\ngini = 0.219\nsamples = 8\nvalue = [7, 1]"] ;
1137 -> 1138 ;
1139 [label="x[2] <= 80601.516\ngini = 0.375\nsamples = 4\nvalue = [3, 1]"] ;
1138 -> 1139 ;
1140 [label="gini = 0.0\nsamples = 3\nvalue = [3, 0]"] ;
1139 -> 1140 ;
1141 [label="gini = 0.0\nsamples = 1\nvalue = [0, 1]"] ;
1139 -> 1141 ;
1142 [label="gini = 0.0\nsamples = 4\nvalue = [4, 0]"] ;
1138 -> 1142 ;
1143 [label="x[3] <= 53514.115\ngini = 0.5\nsamples = 2\nvalue = [1, 1]"] ;
1137 -> 1143 ;
1144 [label="gini = 0.0\nsamples = 1\nvalue = [0, 1]"] ;
1143 -> 1144 ;
1145 [label="gini = 0.0\nsamples = 1\nvalue = [1, 0]"] ;
1143 -> 1145 ;
1146 [label="x[2] <= 89025.859\ngini = 0.469\nsamples = 8\nvalue = [3, 5]"] ;
1136 -> 1146 ;
1147 [label="x[2] <= 85521.922\ngini = 0.408\nsamples = 7\nvalue = [2, 5]"] ;
1146 -> 1147 ;
1148 [label="x[2] <= 85279.824\ngini = 0.48\nsamples = 5\nvalue = [2, 3]"] ;
1147 -> 1148 ;
1149 [label="x[3] <= 47408.529\ngini = 0.375\nsamples = 4\nvalue = [1, 3]"] ;
1148 -> 1149 ;
1150 [label="x[0] <= 12.5\ngini = 0.5\nsamples = 2\nvalue = [1, 1]"] ;
1149 -> 1150 ;
1151 [label="gini = 0.0\nsamples = 1\nvalue = [0, 1]"] ;
1150 -> 1151 ;
1152 [label="gini = 0.0\nsamples = 1\nvalue = [1, 0]"] ;
1150 -> 1152 ;
1153 [label="gini = 0.0\nsamples = 2\nvalue = [0, 2]"] ;
1149 -> 1153 ;
1154 [label="gini = 0.0\nsamples = 1\nvalue = [1, 0]"] ;
1148 -> 1154 ;
1155 [label="gini = 0.0\nsamples = 2\nvalue = [0, 2]"] ;
1147 -> 1155 ;
1156 [label="gini = 0.0\nsamples = 1\nvalue = [1, 0]"] ;
1146 -> 1156 ;
1157 [label="gini = 0.0\nsamples = 6\nvalue = [6, 0]"] ;
1135 -> 1157 ;
1158 [label="gini = 0.0\nsamples = 3\nvalue = [0, 3]"] ;
1104 -> 1158 ;
1159 [label="x[0] <= 4.5\ngini = 0.485\nsamples = 114\nvalue = [47, 67]"] ;
1099 -> 1159 ;
1160 [label="x[2] <= 71823.723\ngini = 0.488\nsamples = 26\nvalue = [15, 11]"] ;
1159 -> 1160 ;
1161 [label="gini = 0.0\nsamples = 2\nvalue = [0, 2]"] ;
1160 -> 1161 ;
1162 [label="x[2] <= 73137.84\ngini = 0.469\nsamples = 24\nvalue = [15, 9]"] ;
1160 -> 1162 ;
1163 [label="gini = 0.0\nsamples = 3\nvalue = [3, 0]"] ;
1162 -> 1163 ;
1164 [label="x[2] <= 86922.574\ngini = 0.49\nsamples = 21\nvalue = [12, 9]"] ;
1162 -> 1164 ;
1165 [label="x[2] <= 85712.262\ngini = 0.5\nsamples = 18\nvalue = [9, 9]"] ;
1164 -> 1165 ;
1166 [label="x[3] <= 76811.953\ngini = 0.492\nsamples = 16\nvalue = [9, 7]"] ;
1165 -> 1166 ;
1167 [label="x[0] <= 3.5\ngini = 0.444\nsamples = 12\nvalue = [8, 4]"] ;
1166 -> 1167 ;
1168 [label="gini = 0.0\nsamples = 4\nvalue = [4, 0]"] ;
1167 -> 1168 ;
1169 [label="x[3] <= 59498.635\ngini = 0.5\nsamples = 8\nvalue = [4, 4]"] ;
1167 -> 1169 ;
1170 [label="gini = 0.0\nsamples = 1\nvalue = [0, 1]"] ;
1169 -> 1170 ;
1171 [label="x[2] <= 76604.145\ngini = 0.49\nsamples = 7\nvalue = [4, 3]"] ;
1169 -> 1171 ;
1172 [label="gini = 0.0\nsamples = 1\nvalue = [0, 1]"] ;
1171 -> 1172 ;
1173 [label="x[3] <= 67606.547\ngini = 0.444\nsamples = 6\nvalue = [4, 2]"] ;
1171 -> 1173 ;
1174 [label="gini = 0.0\nsamples = 2\nvalue = [2, 0]"] ;
1173 -> 1174 ;
1175 [label="x[2] <= 79534.508\ngini = 0.5\nsamples = 4\nvalue = [2, 2]"] ;
1173 -> 1175 ;
1176 [label="gini = 0.0\nsamples = 1\nvalue = [1, 0]"] ;
1175 -> 1176 ;
1177 [label="x[3] <= 75228.473\ngini = 0.444\nsamples = 3\nvalue = [1, 2]"] ;
1175 -> 1177 ;
1178 [label="gini = 0.0\nsamples = 2\nvalue = [0, 2]"] ;
1177 -> 1178 ;
1179 [label="gini = 0.0\nsamples = 1\nvalue = [1, 0]"] ;
1177 -> 1179 ;
1180 [label="x[0] <= 3.5\ngini = 0.375\nsamples = 4\nvalue = [1, 3]"] ;
1166 -> 1180 ;
1181 [label="gini = 0.0\nsamples = 3\nvalue = [0, 3]"] ;
1180 -> 1181 ;
1182 [label="gini = 0.0\nsamples = 1\nvalue = [1, 0]"] ;
1180 -> 1182 ;
1183 [label="gini = 0.0\nsamples = 2\nvalue = [0, 2]"] ;
1165 -> 1183 ;
1184 [label="gini = 0.0\nsamples = 3\nvalue = [3, 0]"] ;
1164 -> 1184 ;
1185 [label="x[3] <= 60663.555\ngini = 0.463\nsamples = 88\nvalue = [32, 56]"] ;
1159 -> 1185 ;
1186 [label="x[0] <= 12.5\ngini = 0.32\nsamples = 15\nvalue = [3, 12]"] ;
1185 -> 1186 ;
1187 [label="gini = 0.0\nsamples = 8\nvalue = [0, 8]"] ;
1186 -> 1187 ;
1188 [label="x[0] <= 13.5\ngini = 0.49\nsamples = 7\nvalue = [3, 4]"] ;
1186 -> 1188 ;
1189 [label="gini = 0.0\nsamples = 2\nvalue = [2, 0]"] ;
1188 -> 1189 ;
1190 [label="x[1] <= 0.5\ngini = 0.32\nsamples = 5\nvalue = [1, 4]"] ;
1188 -> 1190 ;
1191 [label="gini = 0.0\nsamples = 1\nvalue = [1, 0]"] ;
1190 -> 1191 ;
1192 [label="gini = 0.0\nsamples = 4\nvalue = [0, 4]"] ;
1190 -> 1192 ;
1193 [label="x[3] <= 61479.605\ngini = 0.479\nsamples = 73\nvalue = [29, 44]"] ;
1185 -> 1193 ;
1194 [label="gini = 0.0\nsamples = 2\nvalue = [2, 0]"] ;
1193 -> 1194 ;
1195 [label="x[0] <= 12.5\ngini = 0.471\nsamples = 71\nvalue = [27, 44]"] ;
1193 -> 1195 ;
1196 [label="x[0] <= 11.5\ngini = 0.485\nsamples = 63\nvalue = [26, 37]"] ;
1195 -> 1196 ;
1197 [label="x[0] <= 8.5\ngini = 0.474\nsamples = 57\nvalue = [22, 35]"] ;
1196 -> 1197 ;
1198 [label="x[0] <= 6.5\ngini = 0.497\nsamples = 28\nvalue = [13, 15]"] ;
1197 -> 1198 ;
1199 [label="x[2] <= 72638.535\ngini = 0.397\nsamples = 11\nvalue = [3, 8]"] ;
1198 -> 1199 ;
1200 [label="gini = 0.0\nsamples = 1\nvalue = [1, 0]"] ;
1199 -> 1200 ;
1201 [label="x[3] <= 78010.695\ngini = 0.32\nsamples = 10\nvalue = [2, 8]"] ;
1199 -> 1201 ;
1202 [label="x[2] <= 86907.883\ngini = 0.219\nsamples = 8\nvalue = [1, 7]"] ;
1201 -> 1202 ;
1203 [label="gini = 0.0\nsamples = 6\nvalue = [0, 6]"] ;
1202 -> 1203 ;
1204 [label="x[3] <= 68360.975\ngini = 0.5\nsamples = 2\nvalue = [1, 1]"] ;
1202 -> 1204 ;
1205 [label="gini = 0.0\nsamples = 1\nvalue = [0, 1]"] ;
1204 -> 1205 ;
1206 [label="gini = 0.0\nsamples = 1\nvalue = [1, 0]"] ;
1204 -> 1206 ;
1207 [label="x[0] <= 5.5\ngini = 0.5\nsamples = 2\nvalue = [1, 1]"] ;
1201 -> 1207 ;
1208 [label="gini = 0.0\nsamples = 1\nvalue = [0, 1]"] ;
1207 -> 1208 ;
1209 [label="gini = 0.0\nsamples = 1\nvalue = [1, 0]"] ;
1207 -> 1209 ;
1210 [label="x[3] <= 64985.959\ngini = 0.484\nsamples = 17\nvalue = [10, 7]"] ;
1198 -> 1210 ;
1211 [label="gini = 0.0\nsamples = 3\nvalue = [3, 0]"] ;
1210 -> 1211 ;
1212 [label="x[2] <= 85883.488\ngini = 0.5\nsamples = 14\nvalue = [7, 7]"] ;
1210 -> 1212 ;
1213 [label="x[2] <= 77738.246\ngini = 0.463\nsamples = 11\nvalue = [7, 4]"] ;
1212 -> 1213 ;
1214 [label="x[2] <= 74550.969\ngini = 0.444\nsamples = 6\nvalue = [2, 4]"] ;
1213 -> 1214 ;
1215 [label="x[3] <= 80808.461\ngini = 0.444\nsamples = 3\nvalue = [2, 1]"] ;
1214 -> 1215 ;
1216 [label="gini = 0.0\nsamples = 2\nvalue = [2, 0]"] ;
1215 -> 1216 ;
1217 [label="gini = 0.0\nsamples = 1\nvalue = [0, 1]"] ;
1215 -> 1217 ;
1218 [label="gini = 0.0\nsamples = 3\nvalue = [0, 3]"] ;
1214 -> 1218 ;
1219 [label="gini = 0.0\nsamples = 5\nvalue = [5, 0]"] ;
1213 -> 1219 ;
1220 [label="gini = 0.0\nsamples = 3\nvalue = [0, 3]"] ;
1212 -> 1220 ;
1221 [label="x[3] <= 65822.969\ngini = 0.428\nsamples = 29\nvalue = [9, 20]"] ;
1197 -> 1221 ;
1222 [label="gini = 0.0\nsamples = 5\nvalue = [0, 5]"] ;
1221 -> 1222 ;
1223 [label="x[3] <= 65932.871\ngini = 0.469\nsamples = 24\nvalue = [9, 15]"] ;
1221 -> 1223 ;
1224 [label="gini = 0.0\nsamples = 2\nvalue = [2, 0]"] ;
1223 -> 1224 ;
1225 [label="x[2] <= 81744.441\ngini = 0.434\nsamples = 22\nvalue = [7, 15]"] ;
1223 -> 1225 ;
1226 [label="x[2] <= 80773.254\ngini = 0.498\nsamples = 15\nvalue = [7, 8]"] ;
1225 -> 1226 ;
1227 [label="x[3] <= 82770.77\ngini = 0.473\nsamples = 13\nvalue = [5, 8]"] ;
1226 -> 1227 ;
1228 [label="x[3] <= 70172.812\ngini = 0.444\nsamples = 12\nvalue = [4, 8]"] ;
1227 -> 1228 ;
1229 [label="x[3] <= 67758.727\ngini = 0.444\nsamples = 3\nvalue = [2, 1]"] ;
1228 -> 1229 ;
1230 [label="gini = 0.0\nsamples = 1\nvalue = [0, 1]"] ;
1229 -> 1230 ;
1231 [label="gini = 0.0\nsamples = 2\nvalue = [2, 0]"] ;
1229 -> 1231 ;
1232 [label="x[0] <= 10.5\ngini = 0.346\nsamples = 9\nvalue = [2, 7]"] ;
1228 -> 1232 ;
1233 [label="x[2] <= 72354.008\ngini = 0.444\nsamples = 6\nvalue = [2, 4]"] ;
1232 -> 1233 ;
1234 [label="gini = 0.0\nsamples = 1\nvalue = [1, 0]"] ;
1233 -> 1234 ;
1235 [label="x[2] <= 75788.785\ngini = 0.32\nsamples = 5\nvalue = [1, 4]"] ;
1233 -> 1235 ;
1236 [label="gini = 0.0\nsamples = 4\nvalue = [0, 4]"] ;
1235 -> 1236 ;
1237 [label="gini = 0.0\nsamples = 1\nvalue = [1, 0]"] ;
1235 -> 1237 ;
1238 [label="gini = 0.0\nsamples = 3\nvalue = [0, 3]"] ;
1232 -> 1238 ;
1239 [label="gini = 0.0\nsamples = 1\nvalue = [1, 0]"] ;
1227 -> 1239 ;
1240 [label="gini = 0.0\nsamples = 2\nvalue = [2, 0]"] ;
1226 -> 1240 ;
1241 [label="gini = 0.0\nsamples = 7\nvalue = [0, 7]"] ;
1225 -> 1241 ;
1242 [label="x[1] <= 0.5\ngini = 0.444\nsamples = 6\nvalue = [4, 2]"] ;
1196 -> 1242 ;
1243 [label="gini = 0.0\nsamples = 3\nvalue = [3, 0]"] ;
1242 -> 1243 ;
1244 [label="x[3] <= 72880.184\ngini = 0.444\nsamples = 3\nvalue = [1, 2]"] ;
1242 -> 1244 ;
1245 [label="gini = 0.0\nsamples = 1\nvalue = [1, 0]"] ;
1244 -> 1245 ;
1246 [label="gini = 0.0\nsamples = 2\nvalue = [0, 2]"] ;
1244 -> 1246 ;
1247 [label="x[2] <= 71260.801\ngini = 0.219\nsamples = 8\nvalue = [1, 7]"] ;
1195 -> 1247 ;
1248 [label="gini = 0.0\nsamples = 1\nvalue = [1, 0]"] ;
1247 -> 1248 ;
1249 [label="gini = 0.0\nsamples = 7\nvalue = [0, 7]"] ;
1247 -> 1249 ;
1250 [label="gini = 0.0\nsamples = 7\nvalue = [7, 0]"] ;
1098 -> 1250 ;
